Language model created by QuickLM on Sat Jun  6 16:24:15 EDT 2015
Copyright (c) 1996-2010 Carnegie Mellon University and Alexander I. Rudnicky

The model is in standard ARPA format, designed by Doug Paul while he was at MITRE.

The code that was used to produce this language model is available in Open Source.
Please visit http://www.speech.cs.cmu.edu/tools/ for more information

The (fixed) discount mass is 0.5. The backoffs are computed using the ratio method.
This model based on a corpus of 4341 sentences and 4343 words

\data\
ngram 1=4343
ngram 2=8682
ngram 3=4341

\1-grams:
-0.7782 </s> -0.3010
-0.7782 <s> -0.2218
-4.4157 A -0.2218
-4.4157 ABANDON -0.2218
-4.4157 ABILITY -0.2218
-4.4157 ABLE -0.2218
-4.4157 ABORTION -0.2218
-4.4157 ABOUT -0.2218
-4.4157 ABOVE -0.2218
-4.4157 ABROAD -0.2218
-4.4157 ABSENCE -0.2218
-4.4157 ABSOLUTE -0.2218
-4.4157 ABSOLUTELY -0.2218
-4.4157 ABSORB -0.2218
-4.4157 ABSTRACT -0.2218
-4.4157 ABUSE -0.2218
-4.4157 ACADEMIC -0.2218
-4.4157 ACCELERATE -0.2218
-4.4157 ACCENT -0.2218
-4.4157 ACCEPT -0.2218
-4.4157 ACCEPTABLE -0.2218
-4.4157 ACCEPTANCE -0.2218
-4.4157 ACCESS -0.2218
-4.4157 ACCESSIBLE -0.2218
-4.4157 ACCIDENT -0.2218
-4.4157 ACCOMMODATE -0.2218
-4.4157 ACCOMPANY -0.2218
-4.4157 ACCOMPLISH -0.2218
-4.4157 ACCOMPLISHMENT -0.2218
-4.4157 ACCORDING -0.2218
-4.4157 ACCOUNT -0.2218
-4.4157 ACCOUNTABILITY -0.2218
-4.4157 ACCOUNTING -0.2218
-4.4157 ACCURACY -0.2218
-4.4157 ACCURATE -0.2218
-4.4157 ACCURATELY -0.2218
-4.4157 ACCUSATION -0.2218
-4.4157 ACCUSE -0.2218
-4.4157 ACHIEVE -0.2218
-4.4157 ACHIEVEMENT -0.2218
-4.4157 ACID -0.2218
-4.4157 ACKNOWLEDGE -0.2218
-4.4157 ACQUIRE -0.2218
-4.4157 ACQUISITION -0.2218
-4.4157 ACROSS -0.2218
-4.4157 ACT -0.2218
-4.4157 ACTION -0.2218
-4.4157 ACTIVE -0.2218
-4.4157 ACTIVELY -0.2218
-4.4157 ACTIVIST -0.2218
-4.4157 ACTIVITY -0.2218
-4.4157 ACTOR -0.2218
-4.4157 ACTRESS -0.2218
-4.4157 ACTUAL -0.2218
-4.4157 ACTUALLY -0.2218
-4.4157 AD -0.2218
-4.4157 ADAPT -0.2218
-4.4157 ADD -0.2218
-4.4157 ADDED -0.2218
-4.4157 ADDITION -0.2218
-4.4157 ADDITIONAL -0.2218
-4.4157 ADDRESS -0.2218
-4.4157 ADEQUATE -0.2218
-4.4157 ADJUST -0.2218
-4.4157 ADJUSTMENT -0.2218
-4.4157 ADMINISTER -0.2218
-4.4157 ADMINISTRATION -0.2218
-4.4157 ADMINISTRATIVE -0.2218
-4.4157 ADMINISTRATOR -0.2218
-4.4157 ADMIRE -0.2218
-4.4157 ADMISSION -0.2218
-4.4157 ADMIT -0.2218
-4.4157 ADOLESCENT -0.2218
-4.4157 ADOPT -0.2218
-4.4157 ADOPTION -0.2218
-4.4157 ADULT -0.2218
-4.4157 ADVANCE -0.2218
-4.4157 ADVANCED -0.2218
-4.4157 ADVANTAGE -0.2218
-4.4157 ADVENTURE -0.2218
-4.4157 ADVERTISING -0.2218
-4.4157 ADVICE -0.2218
-4.4157 ADVISE -0.2218
-4.4157 ADVISER -0.2218
-4.4157 ADVOCATE -0.2218
-4.4157 AESTHETIC -0.2218
-4.4157 AFFAIR -0.2218
-4.4157 AFFECT -0.2218
-4.4157 AFFORD -0.2218
-4.4157 AFRAID -0.2218
-4.4157 AFRICAN -0.2218
-4.4157 AFRICAN-AMERICAN -0.2218
-4.4157 AFTER -0.2218
-4.4157 AFTERNOON -0.2218
-4.4157 AFTERWARD -0.2218
-4.4157 AGAIN -0.2218
-4.4157 AGAINST -0.2218
-4.4157 AGE -0.2218
-4.4157 AGENCY -0.2218
-4.4157 AGENDA -0.2218
-4.4157 AGENT -0.2218
-4.4157 AGGRESSION -0.2218
-4.4157 AGGRESSIVE -0.2218
-4.4157 AGO -0.2218
-4.4157 AGREE -0.2218
-4.4157 AGREEMENT -0.2218
-4.4157 AGRICULTURAL -0.2218
-4.4157 AGRICULTURE -0.2218
-4.4157 AH -0.2218
-4.4157 AHEAD -0.2218
-4.4157 AID -0.2218
-4.4157 AIDE -0.2218
-4.4157 AIDS -0.2218
-4.4157 AIM -0.2218
-4.4157 AIR -0.2218
-4.4157 AIRCRAFT -0.2218
-4.4157 AIRLINE -0.2218
-4.4157 AIRPLANE -0.2218
-4.4157 AIRPORT -0.2218
-4.4157 AISLE -0.2218
-4.4157 ALARM -0.2218
-4.4157 ALBUM -0.2218
-4.4157 ALCOHOL -0.2218
-4.4157 ALIEN -0.2218
-4.4157 ALIKE -0.2218
-4.4157 ALIVE -0.2218
-4.4157 ALL -0.2218
-4.4157 ALLEGATION -0.2218
-4.4157 ALLEGED -0.2218
-4.4157 ALLEGEDLY -0.2218
-4.4157 ALLEY -0.2218
-4.4157 ALLIANCE -0.2218
-4.4157 ALLOW -0.2218
-4.4157 ALLY -0.2218
-4.4157 ALMOST -0.2218
-4.4157 ALONE -0.2218
-4.4157 ALONG -0.2218
-4.4157 ALONGSIDE -0.2218
-4.4157 ALREADY -0.2218
-4.4157 ALSO -0.2218
-4.4157 ALTER -0.2218
-4.4157 ALTERNATIVE -0.2218
-4.4157 ALTHOUGH -0.2218
-4.4157 ALTOGETHER -0.2218
-4.4157 ALUMINUM -0.2218
-4.4157 ALWAYS -0.2218
-4.4157 AM -0.2218
-4.4157 AMAZING -0.2218
-4.4157 AMBASSADOR -0.2218
-4.4157 AMBITION -0.2218
-4.4157 AMBITIOUS -0.2218
-4.4157 AMENDMENT -0.2218
-4.4157 AMERICAN -0.2218
-4.4157 AMID -0.2218
-4.4157 AMONG -0.2218
-4.4157 AMOUNT -0.2218
-4.4157 ANALYSIS -0.2218
-4.4157 ANALYST -0.2218
-4.4157 ANALYZE -0.2218
-4.4157 ANCESTOR -0.2218
-4.4157 ANCIENT -0.2218
-4.4157 AND -0.2218
-4.4157 AND/OR -0.2218
-4.4157 ANGEL -0.2218
-4.4157 ANGER -0.2218
-4.4157 ANGLE -0.2218
-4.4157 ANGRY -0.2218
-4.4157 ANIMAL -0.2218
-4.4157 ANKLE -0.2218
-4.4157 ANNIVERSARY -0.2218
-4.4157 ANNOUNCE -0.2218
-4.4157 ANNOUNCEMENT -0.2218
-4.4157 ANNUAL -0.2218
-4.4157 ANNUALLY -0.2218
-4.4157 ANONYMOUS -0.2218
-4.4157 ANOTHER -0.2218
-4.4157 ANSWER -0.2218
-4.4157 ANTICIPATE -0.2218
-4.4157 ANXIETY -0.2218
-4.4157 ANXIOUS -0.2218
-4.4157 ANY -0.2218
-4.4157 ANYBODY -0.2218
-4.4157 ANYMORE -0.2218
-4.4157 ANYONE -0.2218
-4.4157 ANYTHING -0.2218
-4.4157 ANYWAY -0.2218
-4.4157 ANYWHERE -0.2218
-4.4157 APART -0.2218
-4.4157 APARTMENT -0.2218
-4.4157 APOLOGIZE -0.2218
-4.4157 APPARENT -0.2218
-4.4157 APPARENTLY -0.2218
-4.4157 APPEAL -0.2218
-4.4157 APPEAR -0.2218
-4.4157 APPEARANCE -0.2218
-4.4157 APPLE -0.2218
-4.4157 APPLICATION -0.2218
-4.4157 APPLY -0.2218
-4.4157 APPOINT -0.2218
-4.4157 APPOINTMENT -0.2218
-4.4157 APPRECIATE -0.2218
-4.4157 APPRECIATION -0.2218
-4.4157 APPROACH -0.2218
-4.4157 APPROPRIATE -0.2218
-4.4157 APPROVAL -0.2218
-4.4157 APPROVE -0.2218
-4.4157 APPROXIMATELY -0.2218
-4.4157 ARAB -0.2218
-4.4157 ARCHITECT -0.2218
-4.4157 ARCHITECTURE -0.2218
-4.4157 AREA -0.2218
-4.4157 ARENA -0.2218
-4.4157 ARGUE -0.2218
-4.4157 ARGUMENT -0.2218
-4.4157 ARISE -0.2218
-4.4157 ARM -0.2218
-4.4157 ARMED -0.2218
-4.4157 ARMY -0.2218
-4.4157 AROUND -0.2218
-4.4157 ARRANGE -0.2218
-4.4157 ARRANGEMENT -0.2218
-4.4157 ARRAY -0.2218
-4.4157 ARREST -0.2218
-4.4157 ARRIVAL -0.2218
-4.4157 ARRIVE -0.2218
-4.4157 ARROW -0.2218
-4.4157 ART -0.2218
-4.4157 ARTICLE -0.2218
-4.4157 ARTICULATE -0.2218
-4.4157 ARTIFACT -0.2218
-4.4157 ARTIFICIAL -0.2218
-4.4157 ARTIST -0.2218
-4.4157 ARTISTIC -0.2218
-4.4157 AS -0.2218
-4.4157 ASH -0.2218
-4.4157 ASIAN -0.2218
-4.4157 ASIDE -0.2218
-4.4157 ASK -0.2218
-4.4157 ASLEEP -0.2218
-4.4157 ASPECT -0.2218
-4.4157 ASS -0.2218
-4.4157 ASSAULT -0.2218
-4.4157 ASSEMBLE -0.2218
-4.4157 ASSEMBLY -0.2218
-4.4157 ASSERT -0.2218
-4.4157 ASSESS -0.2218
-4.4157 ASSESSMENT -0.2218
-4.4157 ASSET -0.2218
-4.4157 ASSIGN -0.2218
-4.4157 ASSIGNMENT -0.2218
-4.4157 ASSIST -0.2218
-4.4157 ASSISTANCE -0.2218
-4.4157 ASSISTANT -0.2218
-4.4157 ASSOCIATE -0.2218
-4.4157 ASSOCIATED -0.2218
-4.4157 ASSOCIATION -0.2218
-4.4157 ASSUME -0.2218
-4.4157 ASSUMPTION -0.2218
-4.4157 ASSURE -0.2218
-4.4157 ASTRONOMER -0.2218
-4.4157 AT -0.2218
-4.4157 ATHLETE -0.2218
-4.4157 ATHLETIC -0.2218
-4.4157 ATMOSPHERE -0.2218
-4.4157 ATOP -0.2218
-4.4157 ATTACH -0.2218
-4.4157 ATTACK -0.2218
-4.4157 ATTEMPT -0.2218
-4.4157 ATTEND -0.2218
-4.4157 ATTENDANCE -0.2218
-4.4157 ATTENTION -0.2218
-4.4157 ATTITUDE -0.2218
-4.4157 ATTORNEY -0.2218
-4.4157 ATTRACT -0.2218
-4.4157 ATTRACTION -0.2218
-4.4157 ATTRACTIVE -0.2218
-4.4157 ATTRIBUTE -0.2218
-4.4157 AUCTION -0.2218
-4.4157 AUDIENCE -0.2218
-4.4157 AUNT -0.2218
-4.4157 AUTHOR -0.2218
-4.4157 AUTHORITY -0.2218
-4.4157 AUTHORIZE -0.2218
-4.4157 AUTO -0.2218
-4.4157 AUTOMATIC -0.2218
-4.4157 AUTOMATICALLY -0.2218
-4.4157 AUTOMOBILE -0.2218
-4.4157 AUTONOMY -0.2218
-4.4157 AVAILABILITY -0.2218
-4.4157 AVAILABLE -0.2218
-4.4157 AVERAGE -0.2218
-4.4157 AVOID -0.2218
-4.4157 AWAIT -0.2218
-4.4157 AWAKE -0.2218
-4.4157 AWARD -0.2218
-4.4157 AWARE -0.2218
-4.4157 AWARENESS -0.2218
-4.4157 AWAY -0.2218
-4.4157 AWFUL -0.2218
-4.4157 BABY -0.2218
-4.4157 BACK -0.2218
-4.4157 BACKGROUND -0.2218
-4.4157 BACKYARD -0.2218
-4.4157 BACTERIA -0.2218
-4.4157 BAD -0.2218
-4.4157 BADLY -0.2218
-4.4157 BAG -0.2218
-4.4157 BAKE -0.2218
-4.4157 BALANCE -0.2218
-4.4157 BALANCED -0.2218
-4.4157 BALL -0.2218
-4.4157 BALLOON -0.2218
-4.4157 BALLOT -0.2218
-4.4157 BAN -0.2218
-4.4157 BANANA -0.2218
-4.4157 BAND -0.2218
-4.4157 BANK -0.2218
-4.4157 BANKER -0.2218
-4.4157 BANKING -0.2218
-4.4157 BANKRUPTCY -0.2218
-4.4157 BAR -0.2218
-4.4157 BARE -0.2218
-4.4157 BARELY -0.2218
-4.4157 BARN -0.2218
-4.4157 BARREL -0.2218
-4.4157 BARRIER -0.2218
-4.4157 BASE -0.2218
-4.4157 BASEBALL -0.2218
-4.4157 BASEMENT -0.2218
-4.4157 BASIC -0.2218
-4.4157 BASICALLY -0.2218
-4.4157 BASIS -0.2218
-4.4157 BASKET -0.2218
-4.4157 BASKETBALL -0.2218
-4.4157 BAT -0.2218
-4.4157 BATH -0.2218
-4.4157 BATHROOM -0.2218
-4.4157 BATTERY -0.2218
-4.4157 BATTLE -0.2218
-4.4157 BAY -0.2218
-4.4157 BE -0.2218
-4.4157 BEACH -0.2218
-4.4157 BEAM -0.2218
-4.4157 BEAN -0.2218
-4.4157 BEAR -0.2218
-4.4157 BEARD -0.2218
-4.4157 BEAST -0.2218
-4.4157 BEAT -0.2218
-4.4157 BEAUTIFUL -0.2218
-4.4157 BEAUTY -0.2218
-4.4157 BECAUSE -0.2218
-4.4157 BECOME -0.2218
-4.4157 BED -0.2218
-4.4157 BEDROOM -0.2218
-4.4157 BEE -0.2218
-4.4157 BEEF -0.2218
-4.4157 BEER -0.2218
-4.4157 BEFORE -0.2218
-4.4157 BEG -0.2218
-4.4157 BEGIN -0.2218
-4.4157 BEGINNING -0.2218
-4.4157 BEHALF -0.2218
-4.4157 BEHAVE -0.2218
-4.4157 BEHAVIOR -0.2218
-4.4157 BEHAVIORAL -0.2218
-4.4157 BEHIND -0.2218
-4.4157 BEING -0.2218
-4.4157 BELIEF -0.2218
-4.4157 BELIEVE -0.2218
-4.4157 BELL -0.2218
-4.4157 BELLY -0.2218
-4.4157 BELONG -0.2218
-4.4157 BELOW -0.2218
-4.4157 BELT -0.2218
-4.4157 BENCH -0.2218
-4.4157 BEND -0.2218
-4.4157 BENEATH -0.2218
-4.4157 BENEFIT -0.2218
-4.4157 BESIDE -0.2218
-4.4157 BESIDES -0.2218
-4.4157 BEST -0.2218
-4.4157 BET -0.2218
-4.4157 BETTER -0.2218
-4.4157 BETWEEN -0.2218
-4.4157 BEYOND -0.2218
-4.4157 BIAS -0.2218
-4.4157 BIBLE -0.2218
-4.4157 BICYCLE -0.2218
-4.4157 BID -0.2218
-4.4157 BIG -0.2218
-4.4157 BIKE -0.2218
-4.4157 BILL -0.2218
-4.4157 BILLION -0.2218
-4.4157 BIND -0.2218
-4.4157 BIOGRAPHY -0.2218
-4.4157 BIOLOGICAL -0.2218
-4.4157 BIOLOGY -0.2218
-4.4157 BIRD -0.2218
-4.4157 BIRTH -0.2218
-4.4157 BIRTHDAY -0.2218
-4.4157 BISHOP -0.2218
-4.4157 BIT -0.2218
-4.4157 BITE -0.2218
-4.4157 BITTER -0.2218
-4.4157 BLACK -0.2218
-4.4157 BLADE -0.2218
-4.4157 BLAME -0.2218
-4.4157 BLANK -0.2218
-4.4157 BLANKET -0.2218
-4.4157 BLAST -0.2218
-4.4157 BLEND -0.2218
-4.4157 BLESS -0.2218
-4.4157 BLESSING -0.2218
-4.4157 BLIND -0.2218
-4.4157 BLINK -0.2218
-4.4157 BLOCK -0.2218
-4.4157 BLOND -0.2218
-4.4157 BLOOD -0.2218
-4.4157 BLOODY -0.2218
-4.4157 BLOW -0.2218
-4.4157 BLUE -0.2218
-4.4157 BOARD -0.2218
-4.4157 BOAST -0.2218
-4.4157 BOAT -0.2218
-4.4157 BODY -0.2218
-4.4157 BOIL -0.2218
-4.4157 BOLD -0.2218
-4.4157 BOLT -0.2218
-4.4157 BOMB -0.2218
-4.4157 BOMBING -0.2218
-4.4157 BOND -0.2218
-4.4157 BONE -0.2218
-4.4157 BONUS -0.2218
-4.4157 BOOK -0.2218
-4.4157 BOOM -0.2218
-4.4157 BOOST -0.2218
-4.4157 BOOT -0.2218
-4.4157 BOOTH -0.2218
-4.4157 BORDER -0.2218
-4.4157 BORING -0.2218
-4.4157 BORN -0.2218
-4.4157 BORROW -0.2218
-4.4157 BOSS -0.2218
-4.4157 BOTH -0.2218
-4.4157 BOTHER -0.2218
-4.4157 BOTTLE -0.2218
-4.4157 BOTTOM -0.2218
-4.4157 BOUNCE -0.2218
-4.4157 BOUNDARY -0.2218
-4.4157 BOW -0.2218
-4.4157 BOWL -0.2218
-4.4157 BOX -0.2218
-4.4157 BOY -0.2218
-4.4157 BOYFRIEND -0.2218
-4.4157 BRAIN -0.2218
-4.4157 BRAKE -0.2218
-4.4157 BRANCH -0.2218
-4.4157 BRAND -0.2218
-4.4157 BRAVE -0.2218
-4.4157 BREAD -0.2218
-4.4157 BREAK -0.2218
-4.4157 BREAKFAST -0.2218
-4.4157 BREAST -0.2218
-4.4157 BREATH -0.2218
-4.4157 BREATHE -0.2218
-4.4157 BREATHING -0.2218
-4.4157 BREEZE -0.2218
-4.4157 BRICK -0.2218
-4.4157 BRIDE -0.2218
-4.4157 BRIDGE -0.2218
-4.4157 BRIEF -0.2218
-4.4157 BRIEFLY -0.2218
-4.4157 BRIGHT -0.2218
-4.4157 BRILLIANT -0.2218
-4.4157 BRING -0.2218
-4.4157 BRITISH -0.2218
-4.4157 BROAD -0.2218
-4.4157 BROADCAST -0.2218
-4.4157 BROKEN -0.2218
-4.4157 BROKER -0.2218
-4.4157 BRONZE -0.2218
-4.4157 BROTHER -0.2218
-4.4157 BROWN -0.2218
-4.4157 BRUSH -0.2218
-4.4157 BRUTAL -0.2218
-4.4157 BUBBLE -0.2218
-4.4157 BUCK -0.2218
-4.4157 BUCKET -0.2218
-4.4157 BUDDY -0.2218
-4.4157 BUDGET -0.2218
-4.4157 BUG -0.2218
-4.4157 BUILD -0.2218
-4.4157 BUILDER -0.2218
-4.4157 BUILDING -0.2218
-4.4157 BULB -0.2218
-4.4157 BULK -0.2218
-4.4157 BULL -0.2218
-4.4157 BULLET -0.2218
-4.4157 BUNCH -0.2218
-4.4157 BURDEN -0.2218
-4.4157 BUREAU -0.2218
-4.4157 BURN -0.2218
-4.4157 BURNING -0.2218
-4.4157 BURY -0.2218
-4.4157 BUS -0.2218
-4.4157 BUSH -0.2218
-4.4157 BUSINESS -0.2218
-4.4157 BUSINESSMAN -0.2218
-4.4157 BUSY -0.2218
-4.4157 BUT -0.2218
-4.4157 BUTT -0.2218
-4.4157 BUTTER -0.2218
-4.4157 BUTTERFLY -0.2218
-4.4157 BUTTON -0.2218
-4.4157 BUY -0.2218
-4.4157 BUYER -0.2218
-4.4157 BY -0.2218
-4.4157 CAB -0.2218
-4.4157 CABIN -0.2218
-4.4157 CABINET -0.2218
-4.4157 CABLE -0.2218
-4.4157 CAGE -0.2218
-4.4157 CAKE -0.2218
-4.4157 CALCULATE -0.2218
-4.4157 CALCULATION -0.2218
-4.4157 CALENDAR -0.2218
-4.4157 CALL -0.2218
-4.4157 CALM -0.2218
-4.4157 CAMERA -0.2218
-4.4157 CAMP -0.2218
-4.4157 CAMPAIGN -0.2218
-4.4157 CAMPUS -0.2218
-4.4157 CAN -0.2218
-4.4157 CANADIAN -0.2218
-4.4157 CANCEL -0.2218
-4.4157 CANCER -0.2218
-4.4157 CANDIDATE -0.2218
-4.4157 CANDLE -0.2218
-4.4157 CANDY -0.2218
-4.4157 CANVAS -0.2218
-4.4157 CAP -0.2218
-4.4157 CAPABILITY -0.2218
-4.4157 CAPABLE -0.2218
-4.4157 CAPACITY -0.2218
-4.4157 CAPITAL -0.2218
-4.4157 CAPTAIN -0.2218
-4.4157 CAPTURE -0.2218
-4.4157 CAR -0.2218
-4.4157 CARBOHYDRATE -0.2218
-4.4157 CARBON -0.2218
-4.4157 CARD -0.2218
-4.4157 CARE -0.2218
-4.4157 CAREER -0.2218
-4.4157 CAREFUL -0.2218
-4.4157 CAREFULLY -0.2218
-4.4157 CARGO -0.2218
-4.4157 CARPET -0.2218
-4.4157 CARRIER -0.2218
-4.4157 CARROT -0.2218
-4.4157 CARRY -0.2218
-4.4157 CART -0.2218
-4.4157 CARTOON -0.2218
-4.4157 CARVE -0.2218
-4.4157 CASE -0.2218
-4.4157 CASH -0.2218
-4.4157 CASINO -0.2218
-4.4157 CAST -0.2218
-4.4157 CASUAL -0.2218
-4.4157 CASUALTY -0.2218
-4.4157 CAT -0.2218
-4.4157 CATALOG -0.2218
-4.4157 CATCH -0.2218
-4.4157 CATEGORY -0.2218
-4.4157 CATHOLIC -0.2218
-4.4157 CATTLE -0.2218
-4.4157 CAUSE -0.2218
-4.4157 CAVE -0.2218
-4.4157 CEASE -0.2218
-4.4157 CEILING -0.2218
-4.4157 CELEBRATE -0.2218
-4.4157 CELEBRATION -0.2218
-4.4157 CELEBRITY -0.2218
-4.4157 CELL -0.2218
-4.4157 CEMETERY -0.2218
-4.4157 CENTER -0.2218
-4.4157 CENTRAL -0.2218
-4.4157 CENTURY -0.2218
-4.4157 CEO -0.2218
-4.4157 CEREMONY -0.2218
-4.4157 CERTAIN -0.2218
-4.4157 CERTAINLY -0.2218
-4.4157 CHAIN -0.2218
-4.4157 CHAIR -0.2218
-4.4157 CHAIRMAN -0.2218
-4.4157 CHALLENGE -0.2218
-4.4157 CHAMBER -0.2218
-4.4157 CHAMPION -0.2218
-4.4157 CHAMPIONSHIP -0.2218
-4.4157 CHANCE -0.2218
-4.4157 CHANGE -0.2218
-4.4157 CHANGING -0.2218
-4.4157 CHANNEL -0.2218
-4.4157 CHAOS -0.2218
-4.4157 CHAPTER -0.2218
-4.4157 CHARACTER -0.2218
-4.4157 CHARACTERISTIC -0.2218
-4.4157 CHARACTERIZE -0.2218
-4.4157 CHARGE -0.2218
-4.4157 CHARITY -0.2218
-4.4157 CHARM -0.2218
-4.4157 CHART -0.2218
-4.4157 CHARTER -0.2218
-4.4157 CHASE -0.2218
-4.4157 CHEAP -0.2218
-4.4157 CHEAT -0.2218
-4.4157 CHECK -0.2218
-4.4157 CHEEK -0.2218
-4.4157 CHEER -0.2218
-4.4157 CHEESE -0.2218
-4.4157 CHEF -0.2218
-4.4157 CHEMICAL -0.2218
-4.4157 CHEMISTRY -0.2218
-4.4157 CHEST -0.2218
-4.4157 CHEW -0.2218
-4.4157 CHICKEN -0.2218
-4.4157 CHIEF -0.2218
-4.4157 CHILD -0.2218
-4.4157 CHILDHOOD -0.2218
-4.4157 CHILL -0.2218
-4.4157 CHIN -0.2218
-4.4157 CHINESE -0.2218
-4.4157 CHIP -0.2218
-4.4157 CHOCOLATE -0.2218
-4.4157 CHOICE -0.2218
-4.4157 CHOLESTEROL -0.2218
-4.4157 CHOOSE -0.2218
-4.4157 CHOP -0.2218
-4.4157 CHRISTIAN -0.2218
-4.4157 CHRISTIANITY -0.2218
-4.4157 CHRISTMAS -0.2218
-4.4157 CHRONIC -0.2218
-4.4157 CHUNK -0.2218
-4.4157 CHURCH -0.2218
-4.4157 CIGARETTE -0.2218
-4.4157 CIRCLE -0.2218
-4.4157 CIRCUIT -0.2218
-4.4157 CIRCUMSTANCE -0.2218
-4.4157 CITE -0.2218
-4.4157 CITIZEN -0.2218
-4.4157 CITIZENSHIP -0.2218
-4.4157 CITY -0.2218
-4.4157 CIVIC -0.2218
-4.4157 CIVIL -0.2218
-4.4157 CIVILIAN -0.2218
-4.4157 CIVILIZATION -0.2218
-4.4157 CLAIM -0.2218
-4.4157 CLASS -0.2218
-4.4157 CLASSIC -0.2218
-4.4157 CLASSICAL -0.2218
-4.4157 CLASSIFY -0.2218
-4.4157 CLASSROOM -0.2218
-4.4157 CLAY -0.2218
-4.4157 CLEAN -0.2218
-4.4157 CLEAR -0.2218
-4.4157 CLEARLY -0.2218
-4.4157 CLERK -0.2218
-4.4157 CLICK -0.2218
-4.4157 CLIENT -0.2218
-4.4157 CLIFF -0.2218
-4.4157 CLIMATE -0.2218
-4.4157 CLIMB -0.2218
-4.4157 CLING -0.2218
-4.4157 CLINIC -0.2218
-4.4157 CLINICAL -0.2218
-4.4157 CLIP -0.2218
-4.4157 CLOCK -0.2218
-4.4157 CLOSE -0.2218
-4.4157 CLOSED -0.2218
-4.4157 CLOSELY -0.2218
-4.4157 CLOSER -0.2218
-4.4157 CLOSEST -0.2218
-4.4157 CLOSET -0.2218
-4.4157 CLOTH -0.2218
-4.4157 CLOTHES -0.2218
-4.4157 CLOTHING -0.2218
-4.4157 CLOUD -0.2218
-4.4157 CLUB -0.2218
-4.4157 CLUE -0.2218
-4.4157 CLUSTER -0.2218
-4.4157 COACH -0.2218
-4.4157 COAL -0.2218
-4.4157 COALITION -0.2218
-4.4157 COAST -0.2218
-4.4157 COASTAL -0.2218
-4.4157 COAT -0.2218
-4.4157 COCAINE -0.2218
-4.4157 CODE -0.2218
-4.4157 COFFEE -0.2218
-4.4157 COGNITIVE -0.2218
-4.4157 COIN -0.2218
-4.4157 COLD -0.2218
-4.4157 COLLABORATION -0.2218
-4.4157 COLLAPSE -0.2218
-4.4157 COLLAR -0.2218
-4.4157 COLLEAGUE -0.2218
-4.4157 COLLECT -0.2218
-4.4157 COLLECTION -0.2218
-4.4157 COLLECTIVE -0.2218
-4.4157 COLLECTOR -0.2218
-4.4157 COLLEGE -0.2218
-4.4157 COLONIAL -0.2218
-4.4157 COLONY -0.2218
-4.4157 COLOR -0.2218
-4.4157 COLORFUL -0.2218
-4.4157 COLUMN -0.2218
-4.4157 COLUMNIST -0.2218
-4.4157 COMBAT -0.2218
-4.4157 COMBINATION -0.2218
-4.4157 COMBINE -0.2218
-4.4157 COMBINED -0.2218
-4.4157 COME -0.2218
-4.4157 COMEDY -0.2218
-4.4157 COMFORT -0.2218
-4.4157 COMFORTABLE -0.2218
-4.4157 COMING -0.2218
-4.4157 COMMAND -0.2218
-4.4157 COMMANDER -0.2218
-4.4157 COMMENT -0.2218
-4.4157 COMMERCIAL -0.2218
-4.4157 COMMISSION -0.2218
-4.4157 COMMISSIONER -0.2218
-4.4157 COMMIT -0.2218
-4.4157 COMMITMENT -0.2218
-4.4157 COMMITTEE -0.2218
-4.4157 COMMODITY -0.2218
-4.4157 COMMON -0.2218
-4.4157 COMMONLY -0.2218
-4.4157 COMMUNICATE -0.2218
-4.4157 COMMUNICATION -0.2218
-4.4157 COMMUNITY -0.2218
-4.4157 COMPANION -0.2218
-4.4157 COMPANY -0.2218
-4.4157 COMPARABLE -0.2218
-4.4157 COMPARE -0.2218
-4.4157 COMPARISON -0.2218
-4.4157 COMPEL -0.2218
-4.4157 COMPELLING -0.2218
-4.4157 COMPENSATION -0.2218
-4.4157 COMPETE -0.2218
-4.4157 COMPETITION -0.2218
-4.4157 COMPETITIVE -0.2218
-4.4157 COMPETITOR -0.2218
-4.4157 COMPLAIN -0.2218
-4.4157 COMPLAINT -0.2218
-4.4157 COMPLETE -0.2218
-4.4157 COMPLETELY -0.2218
-4.4157 COMPLEX -0.2218
-4.4157 COMPLEXITY -0.2218
-4.4157 COMPLIANCE -0.2218
-4.4157 COMPLICATED -0.2218
-4.4157 COMPLY -0.2218
-4.4157 COMPONENT -0.2218
-4.4157 COMPOSE -0.2218
-4.4157 COMPOSITION -0.2218
-4.4157 COMPOUND -0.2218
-4.4157 COMPREHENSIVE -0.2218
-4.4157 COMPRISE -0.2218
-4.4157 COMPROMISE -0.2218
-4.4157 COMPUTER -0.2218
-4.4157 CONCEDE -0.2218
-4.4157 CONCEIVE -0.2218
-4.4157 CONCENTRATE -0.2218
-4.4157 CONCENTRATION -0.2218
-4.4157 CONCEPT -0.2218
-4.4157 CONCEPTION -0.2218
-4.4157 CONCERN -0.2218
-4.4157 CONCERNED -0.2218
-4.4157 CONCERNING -0.2218
-4.4157 CONCERT -0.2218
-4.4157 CONCLUDE -0.2218
-4.4157 CONCLUSION -0.2218
-4.4157 CONCRETE -0.2218
-4.4157 CONDEMN -0.2218
-4.4157 CONDITION -0.2218
-4.4157 CONDUCT -0.2218
-4.4157 CONFERENCE -0.2218
-4.4157 CONFESS -0.2218
-4.4157 CONFESSION -0.2218
-4.4157 CONFIDENCE -0.2218
-4.4157 CONFIDENT -0.2218
-4.4157 CONFIRM -0.2218
-4.4157 CONFLICT -0.2218
-4.4157 CONFRONT -0.2218
-4.4157 CONFRONTATION -0.2218
-4.4157 CONFUSE -0.2218
-4.4157 CONFUSION -0.2218
-4.4157 CONGRESS -0.2218
-4.4157 CONGRESSIONAL -0.2218
-4.4157 CONNECT -0.2218
-4.4157 CONNECTION -0.2218
-4.4157 CONSCIENCE -0.2218
-4.4157 CONSCIOUS -0.2218
-4.4157 CONSCIOUSNESS -0.2218
-4.4157 CONSECUTIVE -0.2218
-4.4157 CONSENSUS -0.2218
-4.4157 CONSENT -0.2218
-4.4157 CONSEQUENCE -0.2218
-4.4157 CONSEQUENTLY -0.2218
-4.4157 CONSERVATION -0.2218
-4.4157 CONSERVATIVE -0.2218
-4.4157 CONSIDER -0.2218
-4.4157 CONSIDERABLE -0.2218
-4.4157 CONSIDERABLY -0.2218
-4.4157 CONSIDERATION -0.2218
-4.4157 CONSIST -0.2218
-4.4157 CONSISTENT -0.2218
-4.4157 CONSISTENTLY -0.2218
-4.4157 CONSPIRACY -0.2218
-4.4157 CONSTANT -0.2218
-4.4157 CONSTANTLY -0.2218
-4.4157 CONSTITUTE -0.2218
-4.4157 CONSTITUTION -0.2218
-4.4157 CONSTITUTIONAL -0.2218
-4.4157 CONSTRAINT -0.2218
-4.4157 CONSTRUCT -0.2218
-4.4157 CONSTRUCTION -0.2218
-4.4157 CONSULT -0.2218
-4.4157 CONSULTANT -0.2218
-4.4157 CONSUME -0.2218
-4.4157 CONSUMER -0.2218
-4.4157 CONSUMPTION -0.2218
-4.4157 CONTACT -0.2218
-4.4157 CONTAIN -0.2218
-4.4157 CONTAINER -0.2218
-4.4157 CONTEMPLATE -0.2218
-4.4157 CONTEMPORARY -0.2218
-4.4157 CONTEND -0.2218
-4.4157 CONTENT -0.2218
-4.4157 CONTEST -0.2218
-4.4157 CONTEXT -0.2218
-4.4157 CONTINENT -0.2218
-4.4157 CONTINUE -0.2218
-4.4157 CONTINUED -0.2218
-4.4157 CONTINUING -0.2218
-4.4157 CONTINUOUS -0.2218
-4.4157 CONTRACT -0.2218
-4.4157 CONTRACTOR -0.2218
-4.4157 CONTRAST -0.2218
-4.4157 CONTRIBUTE -0.2218
-4.4157 CONTRIBUTION -0.2218
-4.4157 CONTRIBUTOR -0.2218
-4.4157 CONTROL -0.2218
-4.4157 CONTROVERSIAL -0.2218
-4.4157 CONTROVERSY -0.2218
-4.4157 CONVENIENCE -0.2218
-4.4157 CONVENTION -0.2218
-4.4157 CONVENTIONAL -0.2218
-4.4157 CONVERSATION -0.2218
-4.4157 CONVERSION -0.2218
-4.4157 CONVERT -0.2218
-4.4157 CONVEY -0.2218
-4.4157 CONVICT -0.2218
-4.4157 CONVICTION -0.2218
-4.4157 CONVINCE -0.2218
-4.4157 CONVINCED -0.2218
-4.4157 COOK -0.2218
-4.4157 COOKIE -0.2218
-4.4157 COOKING -0.2218
-4.4157 COOL -0.2218
-4.4157 COOPERATE -0.2218
-4.4157 COOPERATION -0.2218
-4.4157 COOPERATIVE -0.2218
-4.4157 COORDINATE -0.2218
-4.4157 COORDINATOR -0.2218
-4.4157 COP -0.2218
-4.4157 COPE -0.2218
-4.4157 COPY -0.2218
-4.4157 CORD -0.2218
-4.4157 CORE -0.2218
-4.4157 CORN -0.2218
-4.4157 CORNER -0.2218
-4.4157 CORPORATE -0.2218
-4.4157 CORPORATION -0.2218
-4.4157 CORRECT -0.2218
-4.4157 CORRECTLY -0.2218
-4.4157 CORRELATION -0.2218
-4.4157 CORRESPONDENT -0.2218
-4.4157 CORRIDOR -0.2218
-4.4157 CORRUPTION -0.2218
-4.4157 COST -0.2218
-4.4157 COSTLY -0.2218
-4.4157 COSTUME -0.2218
-4.4157 COTTAGE -0.2218
-4.4157 COTTON -0.2218
-4.4157 COUCH -0.2218
-4.4157 COULD -0.2218
-4.4157 COUNCIL -0.2218
-4.4157 COUNSEL -0.2218
-4.4157 COUNSELING -0.2218
-4.4157 COUNSELOR -0.2218
-4.4157 COUNT -0.2218
-4.4157 COUNTER -0.2218
-4.4157 COUNTERPART -0.2218
-4.4157 COUNTRY -0.2218
-4.4157 COUNTY -0.2218
-4.4157 COUP -0.2218
-4.4157 COUPLE -0.2218
-4.4157 COURAGE -0.2218
-4.4157 COURSE -0.2218
-4.4157 COURT -0.2218
-4.4157 COURTROOM -0.2218
-4.4157 COUSIN -0.2218
-4.4157 COVER -0.2218
-4.4157 COVERAGE -0.2218
-4.4157 COW -0.2218
-4.4157 CRACK -0.2218
-4.4157 CRAFT -0.2218
-4.4157 CRASH -0.2218
-4.4157 CRAWL -0.2218
-4.4157 CRAZY -0.2218
-4.4157 CREAM -0.2218
-4.4157 CREATE -0.2218
-4.4157 CREATION -0.2218
-4.4157 CREATIVE -0.2218
-4.4157 CREATIVITY -0.2218
-4.4157 CREATURE -0.2218
-4.4157 CREDIBILITY -0.2218
-4.4157 CREDIT -0.2218
-4.4157 CREW -0.2218
-4.4157 CRIME -0.2218
-4.4157 CRIMINAL -0.2218
-4.4157 CRISIS -0.2218
-4.4157 CRITERIA -0.2218
-4.4157 CRITIC -0.2218
-4.4157 CRITICAL -0.2218
-4.4157 CRITICISM -0.2218
-4.4157 CRITICIZE -0.2218
-4.4157 CROP -0.2218
-4.4157 CROSS -0.2218
-4.4157 CROWD -0.2218
-4.4157 CROWDED -0.2218
-4.4157 CRUCIAL -0.2218
-4.4157 CRUEL -0.2218
-4.4157 CRUISE -0.2218
-4.4157 CRUSH -0.2218
-4.4157 CRY -0.2218
-4.4157 CRYSTAL -0.2218
-4.4157 CUBAN -0.2218
-4.4157 CUE -0.2218
-4.4157 CULTURAL -0.2218
-4.4157 CULTURE -0.2218
-4.4157 CUP -0.2218
-4.4157 CURE -0.2218
-4.4157 CURIOSITY -0.2218
-4.4157 CURIOUS -0.2218
-4.4157 CURRENCY -0.2218
-4.4157 CURRENT -0.2218
-4.4157 CURRENTLY -0.2218
-4.4157 CURRICULUM -0.2218
-4.4157 CURTAIN -0.2218
-4.4157 CURVE -0.2218
-4.4157 CUSTODY -0.2218
-4.4157 CUSTOM -0.2218
-4.4157 CUSTOMER -0.2218
-4.4157 CUT -0.2218
-4.4157 CUTE -0.2218
-4.4157 CYCLE -0.2218
-4.4157 DAD -0.2218
-4.4157 DAILY -0.2218
-4.4157 DAM -0.2218
-4.4157 DAMAGE -0.2218
-4.4157 DAMN -0.2218
-4.4157 DANCE -0.2218
-4.4157 DANCER -0.2218
-4.4157 DANCING -0.2218
-4.4157 DANGER -0.2218
-4.4157 DANGEROUS -0.2218
-4.4157 DARE -0.2218
-4.4157 DARK -0.2218
-4.4157 DARKNESS -0.2218
-4.4157 DATA -0.2218
-4.4157 DATABASE -0.2218
-4.4157 DATE -0.2218
-4.4157 DAUGHTER -0.2218
-4.4157 DAWN -0.2218
-4.4157 DAY -0.2218
-4.4157 DEAD -0.2218
-4.4157 DEADLINE -0.2218
-4.4157 DEADLY -0.2218
-4.4157 DEAL -0.2218
-4.4157 DEALER -0.2218
-4.4157 DEAR -0.2218
-4.4157 DEATH -0.2218
-4.4157 DEBATE -0.2218
-4.4157 DEBRIS -0.2218
-4.4157 DEBT -0.2218
-4.4157 DEBUT -0.2218
-4.4157 DECADE -0.2218
-4.4157 DECENT -0.2218
-4.4157 DECIDE -0.2218
-4.4157 DECISION -0.2218
-4.4157 DECK -0.2218
-4.4157 DECLARE -0.2218
-4.4157 DECLINE -0.2218
-4.4157 DECORATE -0.2218
-4.4157 DECREASE -0.2218
-4.4157 DEDICATE -0.2218
-4.4157 DEEM -0.2218
-4.4157 DEEP -0.2218
-4.4157 DEEPLY -0.2218
-4.4157 DEER -0.2218
-4.4157 DEFEAT -0.2218
-4.4157 DEFEND -0.2218
-4.4157 DEFENDANT -0.2218
-4.4157 DEFENDER -0.2218
-4.4157 DEFENSE -0.2218
-4.4157 DEFENSIVE -0.2218
-4.4157 DEFICIT -0.2218
-4.4157 DEFINE -0.2218
-4.4157 DEFINITELY -0.2218
-4.4157 DEFINITION -0.2218
-4.4157 DEGREE -0.2218
-4.4157 DELAY -0.2218
-4.4157 DELIBERATELY -0.2218
-4.4157 DELICATE -0.2218
-4.4157 DELIGHT -0.2218
-4.4157 DELIVER -0.2218
-4.4157 DELIVERY -0.2218
-4.4157 DEMAND -0.2218
-4.4157 DEMOCRACY -0.2218
-4.4157 DEMOCRAT -0.2218
-4.4157 DEMOCRATIC -0.2218
-4.4157 DEMOGRAPHIC -0.2218
-4.4157 DEMONSTRATE -0.2218
-4.4157 DEMONSTRATION -0.2218
-4.4157 DENIAL -0.2218
-4.4157 DENSE -0.2218
-4.4157 DENSITY -0.2218
-4.4157 DENY -0.2218
-4.4157 DEPART -0.2218
-4.4157 DEPARTMENT -0.2218
-4.4157 DEPARTURE -0.2218
-4.4157 DEPEND -0.2218
-4.4157 DEPENDENT -0.2218
-4.4157 DEPENDING -0.2218
-4.4157 DEPICT -0.2218
-4.4157 DEPLOY -0.2218
-4.4157 DEPOSIT -0.2218
-4.4157 DEPRESSED -0.2218
-4.4157 DEPRESSION -0.2218
-4.4157 DEPTH -0.2218
-4.4157 DEPUTY -0.2218
-4.4157 DERIVE -0.2218
-4.4157 DESCEND -0.2218
-4.4157 DESCRIBE -0.2218
-4.4157 DESCRIPTION -0.2218
-4.4157 DESERT -0.2218
-4.4157 DESERVE -0.2218
-4.4157 DESIGN -0.2218
-4.4157 DESIGNER -0.2218
-4.4157 DESIRE -0.2218
-4.4157 DESK -0.2218
-4.4157 DESPERATE -0.2218
-4.4157 DESPERATELY -0.2218
-4.4157 DESPITE -0.2218
-4.4157 DESSERT -0.2218
-4.4157 DESTINATION -0.2218
-4.4157 DESTROY -0.2218
-4.4157 DESTRUCTION -0.2218
-4.4157 DETAIL -0.2218
-4.4157 DETAILED -0.2218
-4.4157 DETECT -0.2218
-4.4157 DETECTIVE -0.2218
-4.4157 DETERMINATION -0.2218
-4.4157 DETERMINE -0.2218
-4.4157 DEVASTATING -0.2218
-4.4157 DEVELOP -0.2218
-4.4157 DEVELOPER -0.2218
-4.4157 DEVELOPING -0.2218
-4.4157 DEVELOPMENT -0.2218
-4.4157 DEVELOPMENTAL -0.2218
-4.4157 DEVICE -0.2218
-4.4157 DEVIL -0.2218
-4.4157 DEVOTE -0.2218
-4.4157 DIABETES -0.2218
-4.4157 DIAGNOSE -0.2218
-4.4157 DIAGNOSIS -0.2218
-4.4157 DIALOGUE -0.2218
-4.4157 DIAMOND -0.2218
-4.4157 DIARY -0.2218
-4.4157 DICTATE -0.2218
-4.4157 DIE -0.2218
-4.4157 DIET -0.2218
-4.4157 DIFFER -0.2218
-4.4157 DIFFERENCE -0.2218
-4.4157 DIFFERENT -0.2218
-4.4157 DIFFERENTLY -0.2218
-4.4157 DIFFICULT -0.2218
-4.4157 DIFFICULTY -0.2218
-4.4157 DIG -0.2218
-4.4157 DIGITAL -0.2218
-4.4157 DIGNITY -0.2218
-4.4157 DILEMMA -0.2218
-4.4157 DIMENSION -0.2218
-4.4157 DIMINISH -0.2218
-4.4157 DINING -0.2218
-4.4157 DINNER -0.2218
-4.4157 DIP -0.2218
-4.4157 DIPLOMAT -0.2218
-4.4157 DIPLOMATIC -0.2218
-4.4157 DIRECT -0.2218
-4.4157 DIRECTION -0.2218
-4.4157 DIRECTLY -0.2218
-4.4157 DIRECTOR -0.2218
-4.4157 DIRT -0.2218
-4.4157 DIRTY -0.2218
-4.4157 DISABILITY -0.2218
-4.4157 DISABLED -0.2218
-4.4157 DISAGREE -0.2218
-4.4157 DISAPPEAR -0.2218
-4.4157 DISAPPOINTED -0.2218
-4.4157 DISAPPOINTMENT -0.2218
-4.4157 DISASTER -0.2218
-4.4157 DISC -0.2218
-4.4157 DISCIPLINE -0.2218
-4.4157 DISCLOSE -0.2218
-4.4157 DISCOUNT -0.2218
-4.4157 DISCOURAGE -0.2218
-4.4157 DISCOURSE -0.2218
-4.4157 DISCOVER -0.2218
-4.4157 DISCOVERY -0.2218
-4.4157 DISCRIMINATION -0.2218
-4.4157 DISCUSS -0.2218
-4.4157 DISCUSSION -0.2218
-4.4157 DISEASE -0.2218
-4.4157 DISH -0.2218
-4.4157 DISK -0.2218
-4.4157 DISMISS -0.2218
-4.4157 DISORDER -0.2218
-4.4157 DISPLAY -0.2218
-4.4157 DISPUTE -0.2218
-4.4157 DISSOLVE -0.2218
-4.4157 DISTANCE -0.2218
-4.4157 DISTANT -0.2218
-4.4157 DISTINCT -0.2218
-4.4157 DISTINCTION -0.2218
-4.4157 DISTINCTIVE -0.2218
-4.4157 DISTINGUISH -0.2218
-4.4157 DISTRACT -0.2218
-4.4157 DISTRIBUTE -0.2218
-4.4157 DISTRIBUTION -0.2218
-4.4157 DISTRICT -0.2218
-4.4157 DISTURB -0.2218
-4.4157 DISTURBING -0.2218
-4.4157 DIVERSE -0.2218
-4.4157 DIVERSITY -0.2218
-4.4157 DIVIDE -0.2218
-4.4157 DIVINE -0.2218
-4.4157 DIVISION -0.2218
-4.4157 DIVORCE -0.2218
-4.4157 DNA -0.2218
-4.4157 DO -0.2218
-4.4157 DOCK -0.2218
-4.4157 DOCTOR -0.2218
-4.4157 DOCTRINE -0.2218
-4.4157 DOCUMENT -0.2218
-4.4157 DOCUMENTARY -0.2218
-4.4157 DOG -0.2218
-4.4157 DOLL -0.2218
-4.4157 DOMAIN -0.2218
-4.4157 DOMESTIC -0.2218
-4.4157 DOMINANT -0.2218
-4.4157 DOMINATE -0.2218
-4.4157 DONATE -0.2218
-4.4157 DONATION -0.2218
-4.4157 DONOR -0.2218
-4.4157 DOOR -0.2218
-4.4157 DOORWAY -0.2218
-4.4157 DOSE -0.2218
-4.4157 DOT -0.2218
-4.4157 DOUBLE -0.2218
-4.4157 DOUBT -0.2218
-4.4157 DOUGH -0.2218
-4.4157 DOWN -0.2218
-4.4157 DOWNTOWN -0.2218
-4.4157 DOZEN -0.2218
-4.4157 DRAFT -0.2218
-4.4157 DRAG -0.2218
-4.4157 DRAIN -0.2218
-4.4157 DRAMA -0.2218
-4.4157 DRAMATIC -0.2218
-4.4157 DRAMATICALLY -0.2218
-4.4157 DRAW -0.2218
-4.4157 DRAWER -0.2218
-4.4157 DRAWING -0.2218
-4.4157 DREAM -0.2218
-4.4157 DRESS -0.2218
-4.4157 DRIED -0.2218
-4.4157 DRIFT -0.2218
-4.4157 DRILL -0.2218
-4.4157 DRINK -0.2218
-4.4157 DRINKING -0.2218
-4.4157 DRIVE -0.2218
-4.4157 DRIVER -0.2218
-4.4157 DRIVEWAY -0.2218
-4.4157 DRIVING -0.2218
-4.4157 DROP -0.2218
-4.4157 DROWN -0.2218
-4.4157 DRUG -0.2218
-4.4157 DRUM -0.2218
-4.4157 DRUNK -0.2218
-4.4157 DRY -0.2218
-4.4157 DUCK -0.2218
-4.4157 DUE -0.2218
-4.4157 DUMB -0.2218
-4.4157 DUMP -0.2218
-4.4157 DURING -0.2218
-4.4157 DUST -0.2218
-4.4157 DUTCH -0.2218
-4.4157 DUTY -0.2218
-4.4157 DYING -0.2218
-4.4157 DYNAMIC -0.2218
-4.4157 DYNAMICS -0.2218
-4.4157 E-MAIL -0.2218
-4.4157 EACH -0.2218
-4.4157 EAGER -0.2218
-4.4157 EAR -0.2218
-4.4157 EARLY -0.2218
-4.4157 EARN -0.2218
-4.4157 EARNINGS -0.2218
-4.4157 EARTH -0.2218
-4.4157 EARTHQUAKE -0.2218
-4.4157 EASE -0.2218
-4.4157 EASILY -0.2218
-4.4157 EAST -0.2218
-4.4157 EASTERN -0.2218
-4.4157 EASY -0.2218
-4.4157 EAT -0.2218
-4.4157 EATING -0.2218
-4.4157 ECHO -0.2218
-4.4157 ECOLOGICAL -0.2218
-4.4157 ECONOMIC -0.2218
-4.4157 ECONOMICALLY -0.2218
-4.4157 ECONOMICS -0.2218
-4.4157 ECONOMIST -0.2218
-4.4157 ECONOMY -0.2218
-4.4157 ECOSYSTEM -0.2218
-4.4157 EDGE -0.2218
-4.4157 EDIT -0.2218
-4.4157 EDITION -0.2218
-4.4157 EDITOR -0.2218
-4.4157 EDUCATE -0.2218
-4.4157 EDUCATION -0.2218
-4.4157 EDUCATIONAL -0.2218
-4.4157 EDUCATOR -0.2218
-4.4157 EFFECT -0.2218
-4.4157 EFFECTIVE -0.2218
-4.4157 EFFECTIVELY -0.2218
-4.4157 EFFECTIVENESS -0.2218
-4.4157 EFFICIENCY -0.2218
-4.4157 EFFICIENT -0.2218
-4.4157 EFFORT -0.2218
-4.4157 EGG -0.2218
-4.4157 EGO -0.2218
-4.4157 EIGHT -0.2218
-4.4157 EIGHTH -0.2218
-4.4157 EITHER -0.2218
-4.4157 ELABORATE -0.2218
-4.4157 ELBOW -0.2218
-4.4157 ELDER -0.2218
-4.4157 ELDERLY -0.2218
-4.4157 ELECT -0.2218
-4.4157 ELECTION -0.2218
-4.4157 ELECTRIC -0.2218
-4.4157 ELECTRICAL -0.2218
-4.4157 ELECTRICITY -0.2218
-4.4157 ELECTRONIC -0.2218
-4.4157 ELECTRONICS -0.2218
-4.4157 ELEGANT -0.2218
-4.4157 ELEMENT -0.2218
-4.4157 ELEMENTARY -0.2218
-4.4157 ELEPHANT -0.2218
-4.4157 ELEVATOR -0.2218
-4.4157 ELEVEN -0.2218
-4.4157 ELIGIBLE -0.2218
-4.4157 ELIMINATE -0.2218
-4.4157 ELITE -0.2218
-4.4157 ELSE -0.2218
-4.4157 ELSEWHERE -0.2218
-4.4157 EMBARRASSED -0.2218
-4.4157 EMBRACE -0.2218
-4.4157 EMERGE -0.2218
-4.4157 EMERGENCY -0.2218
-4.4157 EMERGING -0.2218
-4.4157 EMISSION -0.2218
-4.4157 EMOTION -0.2218
-4.4157 EMOTIONAL -0.2218
-4.4157 EMOTIONALLY -0.2218
-4.4157 EMPHASIS -0.2218
-4.4157 EMPHASIZE -0.2218
-4.4157 EMPIRE -0.2218
-4.4157 EMPLOY -0.2218
-4.4157 EMPLOYEE -0.2218
-4.4157 EMPLOYER -0.2218
-4.4157 EMPLOYMENT -0.2218
-4.4157 EMPTY -0.2218
-4.4157 ENABLE -0.2218
-4.4157 ENACT -0.2218
-4.4157 ENCOUNTER -0.2218
-4.4157 ENCOURAGE -0.2218
-4.4157 ENCOURAGING -0.2218
-4.4157 END -0.2218
-4.4157 ENDLESS -0.2218
-4.4157 ENDORSE -0.2218
-4.4157 ENDURE -0.2218
-4.4157 ENEMY -0.2218
-4.4157 ENERGY -0.2218
-4.4157 ENFORCE -0.2218
-4.4157 ENFORCEMENT -0.2218
-4.4157 ENGAGE -0.2218
-4.4157 ENGAGEMENT -0.2218
-4.4157 ENGINE -0.2218
-4.4157 ENGINEER -0.2218
-4.4157 ENGINEERING -0.2218
-4.4157 ENGLISH -0.2218
-4.4157 ENHANCE -0.2218
-4.4157 ENJOY -0.2218
-4.4157 ENORMOUS -0.2218
-4.4157 ENOUGH -0.2218
-4.4157 ENROLL -0.2218
-4.4157 ENSURE -0.2218
-4.4157 ENTER -0.2218
-4.4157 ENTERPRISE -0.2218
-4.4157 ENTERTAINMENT -0.2218
-4.4157 ENTHUSIASM -0.2218
-4.4157 ENTIRE -0.2218
-4.4157 ENTIRELY -0.2218
-4.4157 ENTITLE -0.2218
-4.4157 ENTITY -0.2218
-4.4157 ENTRANCE -0.2218
-4.4157 ENTREPRENEUR -0.2218
-4.4157 ENTRY -0.2218
-4.4157 ENVELOPE -0.2218
-4.4157 ENVIRONMENT -0.2218
-4.4157 ENVIRONMENTAL -0.2218
-4.4157 ENVISION -0.2218
-4.4157 EPIDEMIC -0.2218
-4.4157 EPISODE -0.2218
-4.4157 EQUAL -0.2218
-4.4157 EQUALITY -0.2218
-4.4157 EQUALLY -0.2218
-4.4157 EQUATION -0.2218
-4.4157 EQUIP -0.2218
-4.4157 EQUIPMENT -0.2218
-4.4157 EQUITY -0.2218
-4.4157 EQUIVALENT -0.2218
-4.4157 ERA -0.2218
-4.4157 ERROR -0.2218
-4.4157 ESCAPE -0.2218
-4.4157 ESPECIALLY -0.2218
-4.4157 ESSAY -0.2218
-4.4157 ESSENCE -0.2218
-4.4157 ESSENTIAL -0.2218
-4.4157 ESSENTIALLY -0.2218
-4.4157 ESTABLISH -0.2218
-4.4157 ESTABLISHMENT -0.2218
-4.4157 ESTATE -0.2218
-4.4157 ESTIMATE -0.2218
-4.4157 ESTIMATED -0.2218
-4.4157 ETC -0.2218
-4.4157 ETHICAL -0.2218
-4.4157 ETHICS -0.2218
-4.4157 ETHNIC -0.2218
-4.4157 EUROPEAN -0.2218
-4.4157 EVALUATE -0.2218
-4.4157 EVALUATION -0.2218
-4.4157 EVEN -0.2218
-4.4157 EVENING -0.2218
-4.4157 EVENT -0.2218
-4.4157 EVENTUALLY -0.2218
-4.4157 EVER -0.2218
-4.4157 EVERY -0.2218
-4.4157 EVERYBODY -0.2218
-4.4157 EVERYDAY -0.2218
-4.4157 EVERYONE -0.2218
-4.4157 EVERYTHING -0.2218
-4.4157 EVERYWHERE -0.2218
-4.4157 EVIDENCE -0.2218
-4.4157 EVIDENT -0.2218
-4.4157 EVIL -0.2218
-4.4157 EVOLUTION -0.2218
-4.4157 EVOLVE -0.2218
-4.4157 EXACT -0.2218
-4.4157 EXACTLY -0.2218
-4.4157 EXAM -0.2218
-4.4157 EXAMINATION -0.2218
-4.4157 EXAMINE -0.2218
-4.4157 EXAMPLE -0.2218
-4.4157 EXCEED -0.2218
-4.4157 EXCELLENT -0.2218
-4.4157 EXCEPT -0.2218
-4.4157 EXCEPTION -0.2218
-4.4157 EXCESSIVE -0.2218
-4.4157 EXCHANGE -0.2218
-4.4157 EXCITED -0.2218
-4.4157 EXCITEMENT -0.2218
-4.4157 EXCITING -0.2218
-4.4157 EXCLUDE -0.2218
-4.4157 EXCLUSIVE -0.2218
-4.4157 EXCLUSIVELY -0.2218
-4.4157 EXCUSE -0.2218
-4.4157 EXECUTE -0.2218
-4.4157 EXECUTION -0.2218
-4.4157 EXECUTIVE -0.2218
-4.4157 EXERCISE -0.2218
-4.4157 EXHAUST -0.2218
-4.4157 EXHIBIT -0.2218
-4.4157 EXHIBITION -0.2218
-4.4157 EXIST -0.2218
-4.4157 EXISTENCE -0.2218
-4.4157 EXISTING -0.2218
-4.4157 EXIT -0.2218
-4.4157 EXOTIC -0.2218
-4.4157 EXPAND -0.2218
-4.4157 EXPANSION -0.2218
-4.4157 EXPECT -0.2218
-4.4157 EXPECTATION -0.2218
-4.4157 EXPECTED -0.2218
-4.4157 EXPEDITION -0.2218
-4.4157 EXPENSE -0.2218
-4.4157 EXPENSIVE -0.2218
-4.4157 EXPERIENCE -0.2218
-4.4157 EXPERIENCED -0.2218
-4.4157 EXPERIMENT -0.2218
-4.4157 EXPERIMENTAL -0.2218
-4.4157 EXPERT -0.2218
-4.4157 EXPERTISE -0.2218
-4.4157 EXPLAIN -0.2218
-4.4157 EXPLANATION -0.2218
-4.4157 EXPLICIT -0.2218
-4.4157 EXPLODE -0.2218
-4.4157 EXPLOIT -0.2218
-4.4157 EXPLORATION -0.2218
-4.4157 EXPLORE -0.2218
-4.4157 EXPLOSION -0.2218
-4.4157 EXPORT -0.2218
-4.4157 EXPOSE -0.2218
-4.4157 EXPOSURE -0.2218
-4.4157 EXPRESS -0.2218
-4.4157 EXPRESSION -0.2218
-4.4157 EXTEND -0.2218
-4.4157 EXTENDED -0.2218
-4.4157 EXTENSION -0.2218
-4.4157 EXTENSIVE -0.2218
-4.4157 EXTENT -0.2218
-4.4157 EXTERNAL -0.2218
-4.4157 EXTRA -0.2218
-4.4157 EXTRAORDINARY -0.2218
-4.4157 EXTREME -0.2218
-4.4157 EXTREMELY -0.2218
-4.4157 EYE -0.2218
-4.4157 EYEBROW -0.2218
-4.4157 FABRIC -0.2218
-4.4157 FACE -0.2218
-4.4157 FACILITATE -0.2218
-4.4157 FACILITY -0.2218
-4.4157 FACT -0.2218
-4.4157 FACTOR -0.2218
-4.4157 FACTORY -0.2218
-4.4157 FACULTY -0.2218
-4.4157 FADE -0.2218
-4.4157 FAIL -0.2218
-4.4157 FAILURE -0.2218
-4.4157 FAINT -0.2218
-4.4157 FAIR -0.2218
-4.4157 FAIRLY -0.2218
-4.4157 FAITH -0.2218
-4.4157 FALL -0.2218
-4.4157 FALSE -0.2218
-4.4157 FAME -0.2218
-4.4157 FAMILIAR -0.2218
-4.4157 FAMILY -0.2218
-4.4157 FAMOUS -0.2218
-4.4157 FAN -0.2218
-4.4157 FANTASTIC -0.2218
-4.4157 FANTASY -0.2218
-4.4157 FAR -0.2218
-4.4157 FARE -0.2218
-4.4157 FARM -0.2218
-4.4157 FARMER -0.2218
-4.4157 FASCINATING -0.2218
-4.4157 FASHION -0.2218
-4.4157 FAST -0.2218
-4.4157 FASTER -0.2218
-4.4157 FAT -0.2218
-4.4157 FATAL -0.2218
-4.4157 FATE -0.2218
-4.4157 FATHER -0.2218
-4.4157 FATIGUE -0.2218
-4.4157 FAULT -0.2218
-4.4157 FAVOR -0.2218
-4.4157 FAVORABLE -0.2218
-4.4157 FAVORITE -0.2218
-4.4157 FEAR -0.2218
-4.4157 FEATHER -0.2218
-4.4157 FEATURE -0.2218
-4.4157 FEDERAL -0.2218
-4.4157 FEE -0.2218
-4.4157 FEED -0.2218
-4.4157 FEEDBACK -0.2218
-4.4157 FEEL -0.2218
-4.4157 FEELING -0.2218
-4.4157 FELLOW -0.2218
-4.4157 FEMALE -0.2218
-4.4157 FEMINIST -0.2218
-4.4157 FENCE -0.2218
-4.4157 FESTIVAL -0.2218
-4.4157 FEVER -0.2218
-4.4157 FEW -0.2218
-4.4157 FEWER -0.2218
-4.4157 FIBER -0.2218
-4.4157 FICTION -0.2218
-4.4157 FIELD -0.2218
-4.4157 FIERCE -0.2218
-4.4157 FIFTEEN -0.2218
-4.4157 FIFTH -0.2218
-4.4157 FIFTY -0.2218
-4.4157 FIGHT -0.2218
-4.4157 FIGHTER -0.2218
-4.4157 FIGHTING -0.2218
-4.4157 FIGURE -0.2218
-4.4157 FILE -0.2218
-4.4157 FILL -0.2218
-4.4157 FILM -0.2218
-4.4157 FILTER -0.2218
-4.4157 FINAL -0.2218
-4.4157 FINALLY -0.2218
-4.4157 FINANCE -0.2218
-4.4157 FINANCIAL -0.2218
-4.4157 FIND -0.2218
-4.4157 FINDING -0.2218
-4.4157 FINE -0.2218
-4.4157 FINGER -0.2218
-4.4157 FINISH -0.2218
-4.4157 FIRE -0.2218
-4.4157 FIRM -0.2218
-4.4157 FIRMLY -0.2218
-4.4157 FIRST -0.2218
-4.4157 FISCAL -0.2218
-4.4157 FISH -0.2218
-4.4157 FISHERMAN -0.2218
-4.4157 FISHING -0.2218
-4.4157 FIST -0.2218
-4.4157 FIT -0.2218
-4.4157 FITNESS -0.2218
-4.4157 FIVE -0.2218
-4.4157 FIX -0.2218
-4.4157 FIXED -0.2218
-4.4157 FLAG -0.2218
-4.4157 FLAME -0.2218
-4.4157 FLASH -0.2218
-4.4157 FLAT -0.2218
-4.4157 FLAVOR -0.2218
-4.4157 FLEE -0.2218
-4.4157 FLEET -0.2218
-4.4157 FLESH -0.2218
-4.4157 FLEXIBILITY -0.2218
-4.4157 FLEXIBLE -0.2218
-4.4157 FLIGHT -0.2218
-4.4157 FLIP -0.2218
-4.4157 FLOAT -0.2218
-4.4157 FLOOD -0.2218
-4.4157 FLOOR -0.2218
-4.4157 FLOUR -0.2218
-4.4157 FLOW -0.2218
-4.4157 FLOWER -0.2218
-4.4157 FLUID -0.2218
-4.4157 FLY -0.2218
-4.4157 FLYING -0.2218
-4.4157 FOCUS -0.2218
-4.4157 FOG -0.2218
-4.4157 FOLD -0.2218
-4.4157 FOLK -0.2218
-4.4157 FOLLOW -0.2218
-4.4157 FOLLOWING -0.2218
-4.4157 FOOD -0.2218
-4.4157 FOOL -0.2218
-4.4157 FOOT -0.2218
-4.4157 FOOTBALL -0.2218
-4.4157 FOR -0.2218
-4.4157 FORBID -0.2218
-4.4157 FORCE -0.2218
-4.4157 FOREHEAD -0.2218
-4.4157 FOREIGN -0.2218
-4.4157 FOREIGNER -0.2218
-4.4157 FOREST -0.2218
-4.4157 FOREVER -0.2218
-4.4157 FORGET -0.2218
-4.4157 FORGIVE -0.2218
-4.4157 FORK -0.2218
-4.4157 FORM -0.2218
-4.4157 FORMAL -0.2218
-4.4157 FORMAT -0.2218
-4.4157 FORMATION -0.2218
-4.4157 FORMER -0.2218
-4.4157 FORMERLY -0.2218
-4.4157 FORMULA -0.2218
-4.4157 FORTH -0.2218
-4.4157 FORTUNATELY -0.2218
-4.4157 FORTUNE -0.2218
-4.4157 FORTY -0.2218
-4.4157 FORUM -0.2218
-4.4157 FORWARD -0.2218
-4.4157 FOSTER -0.2218
-4.4157 FOUND -0.2218
-4.4157 FOUNDATION -0.2218
-4.4157 FOUNDER -0.2218
-4.4157 FOUR -0.2218
-4.4157 FOURTH -0.2218
-4.4157 FRACTION -0.2218
-4.4157 FRAGILE -0.2218
-4.4157 FRAGMENT -0.2218
-4.4157 FRAME -0.2218
-4.4157 FRAMEWORK -0.2218
-4.4157 FRANCHISE -0.2218
-4.4157 FRANKLY -0.2218
-4.4157 FRAUD -0.2218
-4.4157 FREE -0.2218
-4.4157 FREEDOM -0.2218
-4.4157 FREELY -0.2218
-4.4157 FREEZE -0.2218
-4.4157 FRENCH -0.2218
-4.4157 FREQUENCY -0.2218
-4.4157 FREQUENT -0.2218
-4.4157 FREQUENTLY -0.2218
-4.4157 FRESH -0.2218
-4.4157 FRESHMAN -0.2218
-4.4157 FRIEND -0.2218
-4.4157 FRIENDLY -0.2218
-4.4157 FRIENDSHIP -0.2218
-4.4157 FROM -0.2218
-4.4157 FRONT -0.2218
-4.4157 FRONTIER -0.2218
-4.4157 FROWN -0.2218
-4.4157 FROZEN -0.2218
-4.4157 FRUIT -0.2218
-4.4157 FRUSTRATE -0.2218
-4.4157 FRUSTRATION -0.2218
-4.4157 FUCKING -0.2218
-4.4157 FUEL -0.2218
-4.4157 FULL -0.2218
-4.4157 FULL-TIME -0.2218
-4.4157 FULLY -0.2218
-4.4157 FUN -0.2218
-4.4157 FUNCTION -0.2218
-4.4157 FUNCTIONAL -0.2218
-4.4157 FUND -0.2218
-4.4157 FUNDAMENTAL -0.2218
-4.4157 FUNDING -0.2218
-4.4157 FUNERAL -0.2218
-4.4157 FUNNY -0.2218
-4.4157 FUR -0.2218
-4.4157 FURNITURE -0.2218
-4.4157 FURTHERMORE -0.2218
-4.4157 FUTURE -0.2218
-4.4157 GAIN -0.2218
-4.4157 GALAXY -0.2218
-4.4157 GALLERY -0.2218
-4.4157 GAME -0.2218
-4.4157 GANG -0.2218
-4.4157 GAP -0.2218
-4.4157 GARAGE -0.2218
-4.4157 GARBAGE -0.2218
-4.4157 GARDEN -0.2218
-4.4157 GARLIC -0.2218
-4.4157 GAS -0.2218
-4.4157 GASOLINE -0.2218
-4.4157 GATE -0.2218
-4.4157 GATHER -0.2218
-4.4157 GATHERING -0.2218
-4.4157 GAY -0.2218
-4.4157 GAZE -0.2218
-4.4157 GEAR -0.2218
-4.4157 GENDER -0.2218
-4.4157 GENE -0.2218
-4.4157 GENERAL -0.2218
-4.4157 GENERALLY -0.2218
-4.4157 GENERATE -0.2218
-4.4157 GENERATION -0.2218
-4.4157 GENEROUS -0.2218
-4.4157 GENETIC -0.2218
-4.4157 GENIUS -0.2218
-4.4157 GENRE -0.2218
-4.4157 GENTLE -0.2218
-4.4157 GENTLEMAN -0.2218
-4.4157 GENTLY -0.2218
-4.4157 GENUINE -0.2218
-4.4157 GERMAN -0.2218
-4.4157 GESTURE -0.2218
-4.4157 GET -0.2218
-4.4157 GHOST -0.2218
-4.4157 GIANT -0.2218
-4.4157 GIFT -0.2218
-4.4157 GIFTED -0.2218
-4.4157 GIRL -0.2218
-4.4157 GIRLFRIEND -0.2218
-4.4157 GIVE -0.2218
-4.4157 GIVEN -0.2218
-4.4157 GLAD -0.2218
-4.4157 GLANCE -0.2218
-4.4157 GLASS -0.2218
-4.4157 GLIMPSE -0.2218
-4.4157 GLOBAL -0.2218
-4.4157 GLOBE -0.2218
-4.4157 GLORY -0.2218
-4.4157 GLOVE -0.2218
-4.4157 GO -0.2218
-4.4157 GOAL -0.2218
-4.4157 GOAT -0.2218
-4.4157 GOD -0.2218
-4.4157 GOLD -0.2218
-4.4157 GOLDEN -0.2218
-4.4157 GOLF -0.2218
-4.4157 GOOD -0.2218
-4.4157 GOVERN -0.2218
-4.4157 GOVERNMENT -0.2218
-4.4157 GOVERNOR -0.2218
-4.4157 GRAB -0.2218
-4.4157 GRACE -0.2218
-4.4157 GRADE -0.2218
-4.4157 GRADUALLY -0.2218
-4.4157 GRADUATE -0.2218
-4.4157 GRADUATION -0.2218
-4.4157 GRAIN -0.2218
-4.4157 GRAND -0.2218
-4.4157 GRANDCHILD -0.2218
-4.4157 GRANDFATHER -0.2218
-4.4157 GRANDMOTHER -0.2218
-4.4157 GRANDPARENT -0.2218
-4.4157 GRANT -0.2218
-4.4157 GRAPE -0.2218
-4.4157 GRASP -0.2218
-4.4157 GRASS -0.2218
-4.4157 GRATEFUL -0.2218
-4.4157 GRAVE -0.2218
-4.4157 GRAVITY -0.2218
-4.4157 GRAY -0.2218
-4.4157 GREAT -0.2218
-4.4157 GREATEST -0.2218
-4.4157 GREATLY -0.2218
-4.4157 GREEK -0.2218
-4.4157 GREEN -0.2218
-4.4157 GREET -0.2218
-4.4157 GRIEF -0.2218
-4.4157 GRIN -0.2218
-4.4157 GRIP -0.2218
-4.4157 GROCERY -0.2218
-4.4157 GROSS -0.2218
-4.4157 GROUND -0.2218
-4.4157 GROUP -0.2218
-4.4157 GROW -0.2218
-4.4157 GROWING -0.2218
-4.4157 GROWTH -0.2218
-4.4157 GUARANTEE -0.2218
-4.4157 GUARD -0.2218
-4.4157 GUESS -0.2218
-4.4157 GUEST -0.2218
-4.4157 GUIDANCE -0.2218
-4.4157 GUIDE -0.2218
-4.4157 GUIDELINE -0.2218
-4.4157 GUILT -0.2218
-4.4157 GUILTY -0.2218
-4.4157 GUITAR -0.2218
-4.4157 GUN -0.2218
-4.4157 GUT -0.2218
-4.4157 GUY -0.2218
-4.4157 GYM -0.2218
-4.4157 HA -0.2218
-4.4157 HABIT -0.2218
-4.4157 HABITAT -0.2218
-4.4157 HAIR -0.2218
-4.4157 HALF -0.2218
-4.4157 HALFWAY -0.2218
-4.4157 HALL -0.2218
-4.4157 HALLWAY -0.2218
-4.4157 HAND -0.2218
-4.4157 HANDFUL -0.2218
-4.4157 HANDLE -0.2218
-4.4157 HANDSOME -0.2218
-4.4157 HANG -0.2218
-4.4157 HAPPEN -0.2218
-4.4157 HAPPILY -0.2218
-4.4157 HAPPINESS -0.2218
-4.4157 HAPPY -0.2218
-4.4157 HARASSMENT -0.2218
-4.4157 HARD -0.2218
-4.4157 HARDLY -0.2218
-4.4157 HARDWARE -0.2218
-4.4157 HARM -0.2218
-4.4157 HARMONY -0.2218
-4.4157 HARSH -0.2218
-4.4157 HARVEST -0.2218
-4.4157 HAT -0.2218
-4.4157 HATE -0.2218
-4.4157 HAUL -0.2218
-4.4157 HAVE -0.2218
-4.4157 HAY -0.2218
-4.4157 HAZARD -0.2218
-4.4157 HE -0.2218
-4.4157 HEAD -0.2218
-4.4157 HEADACHE -0.2218
-4.4157 HEADLINE -0.2218
-4.4157 HEADQUARTERS -0.2218
-4.4157 HEAL -0.2218
-4.4157 HEALTH -0.2218
-4.4157 HEALTH-CARE -0.2218
-4.4157 HEALTHY -0.2218
-4.4157 HEAR -0.2218
-4.4157 HEARING -0.2218
-4.4157 HEART -0.2218
-4.4157 HEAT -0.2218
-4.4157 HEAVEN -0.2218
-4.4157 HEAVILY -0.2218
-4.4157 HEAVY -0.2218
-4.4157 HEEL -0.2218
-4.4157 HEIGHT -0.2218
-4.4157 HELICOPTER -0.2218
-4.4157 HELL -0.2218
-4.4157 HELLO -0.2218
-4.4157 HELMET -0.2218
-4.4157 HELP -0.2218
-4.4157 HELPFUL -0.2218
-4.4157 HENCE -0.2218
-4.4157 HER -0.2218
-4.4157 HERB -0.2218
-4.4157 HERE -0.2218
-4.4157 HERITAGE -0.2218
-4.4157 HERO -0.2218
-4.4157 HERS -0.2218
-4.4157 HERSELF -0.2218
-4.4157 HESITATE -0.2218
-4.4157 HEY -0.2218
-4.4157 HI -0.2218
-4.4157 HIDDEN -0.2218
-4.4157 HIDE -0.2218
-4.4157 HIGH -0.2218
-4.4157 HIGH-TECH -0.2218
-4.4157 HIGHLIGHT -0.2218
-4.4157 HIGHLY -0.2218
-4.4157 HIGHWAY -0.2218
-4.4157 HIKE -0.2218
-4.4157 HILL -0.2218
-4.4157 HIM -0.2218
-4.4157 HIMSELF -0.2218
-4.4157 HINT -0.2218
-4.4157 HIP -0.2218
-4.4157 HIRE -0.2218
-4.4157 HIS -0.2218
-4.4157 HISPANIC -0.2218
-4.4157 HISTORIAN -0.2218
-4.4157 HISTORIC -0.2218
-4.4157 HISTORICAL -0.2218
-4.4157 HISTORICALLY -0.2218
-4.4157 HISTORY -0.2218
-4.4157 HIT -0.2218
-4.4157 HOCKEY -0.2218
-4.4157 HOLD -0.2218
-4.4157 HOLE -0.2218
-4.4157 HOLIDAY -0.2218
-4.4157 HOLY -0.2218
-4.4157 HOME -0.2218
-4.4157 HOMELAND -0.2218
-4.4157 HOMELESS -0.2218
-4.4157 HOMEWORK -0.2218
-4.4157 HONEST -0.2218
-4.4157 HONESTLY -0.2218
-4.4157 HONEY -0.2218
-4.4157 HONOR -0.2218
-4.4157 HOOK -0.2218
-4.4157 HOPE -0.2218
-4.4157 HOPEFULLY -0.2218
-4.4157 HORIZON -0.2218
-4.4157 HORMONE -0.2218
-4.4157 HORN -0.2218
-4.4157 HORRIBLE -0.2218
-4.4157 HORROR -0.2218
-4.4157 HORSE -0.2218
-4.4157 HOSPITAL -0.2218
-4.4157 HOST -0.2218
-4.4157 HOSTAGE -0.2218
-4.4157 HOSTILE -0.2218
-4.4157 HOT -0.2218
-4.4157 HOTEL -0.2218
-4.4157 HOUR -0.2218
-4.4157 HOUSE -0.2218
-4.4157 HOUSEHOLD -0.2218
-4.4157 HOUSING -0.2218
-4.4157 HOW -0.2218
-4.4157 HOWEVER -0.2218
-4.4157 HUG -0.2218
-4.4157 HUGE -0.2218
-4.4157 HUH -0.2218
-4.4157 HUMAN -0.2218
-4.4157 HUMANITY -0.2218
-4.4157 HUMOR -0.2218
-4.4157 HUNDRED -0.2218
-4.4157 HUNGER -0.2218
-4.4157 HUNGRY -0.2218
-4.4157 HUNT -0.2218
-4.4157 HUNTER -0.2218
-4.4157 HUNTING -0.2218
-4.4157 HURRICANE -0.2218
-4.4157 HURRY -0.2218
-4.4157 HURT -0.2218
-4.4157 HUSBAND -0.2218
-4.4157 HYPOTHESIS -0.2218
-4.4157 I -0.2218
-4.4157 ICE -0.2218
-4.4157 ICON -0.2218
-4.4157 IDEA -0.2218
-4.4157 IDEAL -0.2218
-4.4157 IDENTICAL -0.2218
-4.4157 IDENTIFICATION -0.2218
-4.4157 IDENTIFY -0.2218
-4.4157 IDENTITY -0.2218
-4.4157 IDEOLOGICAL -0.2218
-4.4157 IDEOLOGY -0.2218
-4.4157 IE -0.2218
-4.4157 IF -0.2218
-4.4157 IGNORE -0.2218
-4.4157 ILL -0.2218
-4.4157 ILLEGAL -0.2218
-4.4157 ILLNESS -0.2218
-4.4157 ILLUSION -0.2218
-4.4157 ILLUSTRATE -0.2218
-4.4157 IMAGE -0.2218
-4.4157 IMAGINATION -0.2218
-4.4157 IMAGINE -0.2218
-4.4157 IMMEDIATE -0.2218
-4.4157 IMMEDIATELY -0.2218
-4.4157 IMMIGRANT -0.2218
-4.4157 IMMIGRATION -0.2218
-4.4157 IMMUNE -0.2218
-4.4157 IMPACT -0.2218
-4.4157 IMPLEMENT -0.2218
-4.4157 IMPLEMENTATION -0.2218
-4.4157 IMPLICATION -0.2218
-4.4157 IMPLY -0.2218
-4.4157 IMPORT -0.2218
-4.4157 IMPORTANCE -0.2218
-4.4157 IMPORTANT -0.2218
-4.4157 IMPORTANTLY -0.2218
-4.4157 IMPOSE -0.2218
-4.4157 IMPOSSIBLE -0.2218
-4.4157 IMPRESS -0.2218
-4.4157 IMPRESSION -0.2218
-4.4157 IMPRESSIVE -0.2218
-4.4157 IMPROVE -0.2218
-4.4157 IMPROVED -0.2218
-4.4157 IMPROVEMENT -0.2218
-4.4157 IMPULSE -0.2218
-4.4157 IN -0.2218
-4.4157 INCENTIVE -0.2218
-4.4157 INCIDENT -0.2218
-4.4157 INCLUDE -0.2218
-4.4157 INCLUDING -0.2218
-4.4157 INCOME -0.2218
-4.4157 INCORPORATE -0.2218
-4.4157 INCREASE -0.2218
-4.4157 INCREASED -0.2218
-4.4157 INCREASING -0.2218
-4.4157 INCREASINGLY -0.2218
-4.4157 INCREDIBLE -0.2218
-4.4157 INCREDIBLY -0.2218
-4.4157 INDEED -0.2218
-4.4157 INDEPENDENCE -0.2218
-4.4157 INDEPENDENT -0.2218
-4.4157 INDEX -0.2218
-4.4157 INDIAN -0.2218
-4.4157 INDICATE -0.2218
-4.4157 INDICATION -0.2218
-4.4157 INDICATOR -0.2218
-4.4157 INDIGENOUS -0.2218
-4.4157 INDIVIDUAL -0.2218
-4.4157 INDUSTRIAL -0.2218
-4.4157 INDUSTRY -0.2218
-4.4157 INEVITABLE -0.2218
-4.4157 INEVITABLY -0.2218
-4.4157 INFANT -0.2218
-4.4157 INFECTION -0.2218
-4.4157 INFLATION -0.2218
-4.4157 INFLUENCE -0.2218
-4.4157 INFLUENTIAL -0.2218
-4.4157 INFORM -0.2218
-4.4157 INFORMAL -0.2218
-4.4157 INFORMATION -0.2218
-4.4157 INFRASTRUCTURE -0.2218
-4.4157 INGREDIENT -0.2218
-4.4157 INHERENT -0.2218
-4.4157 INHERIT -0.2218
-4.4157 INITIAL -0.2218
-4.4157 INITIALLY -0.2218
-4.4157 INITIATE -0.2218
-4.4157 INITIATIVE -0.2218
-4.4157 INJURE -0.2218
-4.4157 INJURY -0.2218
-4.4157 INMATE -0.2218
-4.4157 INNER -0.2218
-4.4157 INNOCENT -0.2218
-4.4157 INNOVATION -0.2218
-4.4157 INNOVATIVE -0.2218
-4.4157 INPUT -0.2218
-4.4157 INQUIRY -0.2218
-4.4157 INSECT -0.2218
-4.4157 INSERT -0.2218
-4.4157 INSIDE -0.2218
-4.4157 INSIGHT -0.2218
-4.4157 INSIST -0.2218
-4.4157 INSPECTION -0.2218
-4.4157 INSPECTOR -0.2218
-4.4157 INSPIRATION -0.2218
-4.4157 INSPIRE -0.2218
-4.4157 INSTALL -0.2218
-4.4157 INSTALLATION -0.2218
-4.4157 INSTANCE -0.2218
-4.4157 INSTANT -0.2218
-4.4157 INSTANTLY -0.2218
-4.4157 INSTEAD -0.2218
-4.4157 INSTINCT -0.2218
-4.4157 INSTITUTION -0.2218
-4.4157 INSTITUTIONAL -0.2218
-4.4157 INSTRUCT -0.2218
-4.4157 INSTRUCTION -0.2218
-4.4157 INSTRUCTIONAL -0.2218
-4.4157 INSTRUCTOR -0.2218
-4.4157 INSTRUMENT -0.2218
-4.4157 INSURANCE -0.2218
-4.4157 INTACT -0.2218
-4.4157 INTEGRATE -0.2218
-4.4157 INTEGRATED -0.2218
-4.4157 INTEGRATION -0.2218
-4.4157 INTEGRITY -0.2218
-4.4157 INTELLECTUAL -0.2218
-4.4157 INTELLIGENCE -0.2218
-4.4157 INTELLIGENT -0.2218
-4.4157 INTEND -0.2218
-4.4157 INTENSE -0.2218
-4.4157 INTENSITY -0.2218
-4.4157 INTENT -0.2218
-4.4157 INTENTION -0.2218
-4.4157 INTERACT -0.2218
-4.4157 INTERACTION -0.2218
-4.4157 INTEREST -0.2218
-4.4157 INTERESTED -0.2218
-4.4157 INTERESTING -0.2218
-4.4157 INTERFERE -0.2218
-4.4157 INTERIOR -0.2218
-4.4157 INTERNAL -0.2218
-4.4157 INTERNATIONAL -0.2218
-4.4157 INTERNET -0.2218
-4.4157 INTERPRET -0.2218
-4.4157 INTERPRETATION -0.2218
-4.4157 INTERRUPT -0.2218
-4.4157 INTERVAL -0.2218
-4.4157 INTERVENTION -0.2218
-4.4157 INTERVIEW -0.2218
-4.4157 INTIMATE -0.2218
-4.4157 INTO -0.2218
-4.4157 INTRODUCE -0.2218
-4.4157 INTRODUCTION -0.2218
-4.4157 INVADE -0.2218
-4.4157 INVASION -0.2218
-4.4157 INVENT -0.2218
-4.4157 INVENTION -0.2218
-4.4157 INVENTORY -0.2218
-4.4157 INVEST -0.2218
-4.4157 INVESTIGATE -0.2218
-4.4157 INVESTIGATION -0.2218
-4.4157 INVESTIGATOR -0.2218
-4.4157 INVESTMENT -0.2218
-4.4157 INVESTOR -0.2218
-4.4157 INVISIBLE -0.2218
-4.4157 INVITATION -0.2218
-4.4157 INVITE -0.2218
-4.4157 INVOLVE -0.2218
-4.4157 INVOLVED -0.2218
-4.4157 INVOLVEMENT -0.2218
-4.4157 IRAQI -0.2218
-4.4157 IRISH -0.2218
-4.4157 IRON -0.2218
-4.4157 IRONICALLY -0.2218
-4.4157 IRONY -0.2218
-4.4157 ISLAM -0.2218
-4.4157 ISLAMIC -0.2218
-4.4157 ISLAND -0.2218
-4.4157 ISOLATE -0.2218
-4.4157 ISOLATED -0.2218
-4.4157 ISOLATION -0.2218
-4.4157 ISRAELI -0.2218
-4.4157 ISSUE -0.2218
-4.4157 IT -0.2218
-4.4157 ITALIAN -0.2218
-4.4157 ITEM -0.2218
-4.4157 ITS -0.2218
-4.4157 ITSELF -0.2218
-4.4157 JACKET -0.2218
-4.4157 JAIL -0.2218
-4.4157 JAPANESE -0.2218
-4.4157 JAR -0.2218
-4.4157 JAW -0.2218
-4.4157 JAZZ -0.2218
-4.4157 JEANS -0.2218
-4.4157 JET -0.2218
-4.4157 JEW -0.2218
-4.4157 JEWELRY -0.2218
-4.4157 JEWISH -0.2218
-4.4157 JOB -0.2218
-4.4157 JOIN -0.2218
-4.4157 JOINT -0.2218
-4.4157 JOKE -0.2218
-4.4157 JOURNAL -0.2218
-4.4157 JOURNALISM -0.2218
-4.4157 JOURNALIST -0.2218
-4.4157 JOURNEY -0.2218
-4.4157 JOY -0.2218
-4.4157 JUDGE -0.2218
-4.4157 JUDGMENT -0.2218
-4.4157 JUDICIAL -0.2218
-4.4157 JUICE -0.2218
-4.4157 JUMP -0.2218
-4.4157 JUNGLE -0.2218
-4.4157 JUNIOR -0.2218
-4.4157 JURISDICTION -0.2218
-4.4157 JUROR -0.2218
-4.4157 JURY -0.2218
-4.4157 JUST -0.2218
-4.4157 JUSTICE -0.2218
-4.4157 JUSTIFY -0.2218
-4.4157 KEEP -0.2218
-4.4157 KEY -0.2218
-4.4157 KICK -0.2218
-4.4157 KID -0.2218
-4.4157 KILL -0.2218
-4.4157 KILLER -0.2218
-4.4157 KILLING -0.2218
-4.4157 KIND -0.2218
-4.4157 KING -0.2218
-4.4157 KINGDOM -0.2218
-4.4157 KISS -0.2218
-4.4157 KIT -0.2218
-4.4157 KITCHEN -0.2218
-4.4157 KNEE -0.2218
-4.4157 KNEEL -0.2218
-4.4157 KNIFE -0.2218
-4.4157 KNOCK -0.2218
-4.4157 KNOW -0.2218
-4.4157 KNOWLEDGE -0.2218
-4.4157 KNOWN -0.2218
-4.4157 KOREAN -0.2218
-4.4157 LAB -0.2218
-4.4157 LABEL -0.2218
-4.4157 LABOR -0.2218
-4.4157 LABORATORY -0.2218
-4.4157 LACK -0.2218
-4.4157 LADDER -0.2218
-4.4157 LADY -0.2218
-4.4157 LAKE -0.2218
-4.4157 LAMP -0.2218
-4.4157 LAND -0.2218
-4.4157 LANDING -0.2218
-4.4157 LANDMARK -0.2218
-4.4157 LANDSCAPE -0.2218
-4.4157 LANE -0.2218
-4.4157 LANGUAGE -0.2218
-4.4157 LAP -0.2218
-4.4157 LARGE -0.2218
-4.4157 LARGELY -0.2218
-4.4157 LASER -0.2218
-4.4157 LAST -0.2218
-4.4157 LATE -0.2218
-4.4157 LATELY -0.2218
-4.4157 LATER -0.2218
-4.4157 LATIN -0.2218
-4.4157 LATTER -0.2218
-4.4157 LAUGH -0.2218
-4.4157 LAUGHTER -0.2218
-4.4157 LAUNCH -0.2218
-4.4157 LAW -0.2218
-4.4157 LAWMAKER -0.2218
-4.4157 LAWN -0.2218
-4.4157 LAWSUIT -0.2218
-4.4157 LAWYER -0.2218
-4.4157 LAY -0.2218
-4.4157 LAYER -0.2218
-4.4157 LEAD -0.2218
-4.4157 LEADER -0.2218
-4.4157 LEADERSHIP -0.2218
-4.4157 LEADING -0.2218
-4.4157 LEAF -0.2218
-4.4157 LEAGUE -0.2218
-4.4157 LEAN -0.2218
-4.4157 LEAP -0.2218
-4.4157 LEARN -0.2218
-4.4157 LEARNING -0.2218
-4.4157 LEAST -0.2218
-4.4157 LEATHER -0.2218
-4.4157 LEAVE -0.2218
-4.4157 LECTURE -0.2218
-4.4157 LEFT -0.2218
-4.4157 LEG -0.2218
-4.4157 LEGACY -0.2218
-4.4157 LEGAL -0.2218
-4.4157 LEGALLY -0.2218
-4.4157 LEGEND -0.2218
-4.4157 LEGISLATION -0.2218
-4.4157 LEGISLATIVE -0.2218
-4.4157 LEGISLATOR -0.2218
-4.4157 LEGISLATURE -0.2218
-4.4157 LEGITIMATE -0.2218
-4.4157 LEMON -0.2218
-4.4157 LEND -0.2218
-4.4157 LENGTH -0.2218
-4.4157 LENS -0.2218
-4.4157 LESS -0.2218
-4.4157 LESSON -0.2218
-4.4157 LET -0.2218
-4.4157 LETTER -0.2218
-4.4157 LEVEL -0.2218
-4.4157 LIABILITY -0.2218
-4.4157 LIBERAL -0.2218
-4.4157 LIBERTY -0.2218
-4.4157 LIBRARY -0.2218
-4.4157 LICENSE -0.2218
-4.4157 LID -0.2218
-4.4157 LIE -0.2218
-4.4157 LIFE -0.2218
-4.4157 LIFESTYLE -0.2218
-4.4157 LIFETIME -0.2218
-4.4157 LIFT -0.2218
-4.4157 LIGHT -0.2218
-4.4157 LIGHTING -0.2218
-4.4157 LIGHTLY -0.2218
-4.4157 LIGHTNING -0.2218
-4.4157 LIKE -0.2218
-4.4157 LIKELIHOOD -0.2218
-4.4157 LIKELY -0.2218
-4.4157 LIKEWISE -0.2218
-4.4157 LIMB -0.2218
-4.4157 LIMIT -0.2218
-4.4157 LIMITATION -0.2218
-4.4157 LIMITED -0.2218
-4.4157 LINE -0.2218
-4.4157 LINK -0.2218
-4.4157 LION -0.2218
-4.4157 LIP -0.2218
-4.4157 LIQUID -0.2218
-4.4157 LIST -0.2218
-4.4157 LISTEN -0.2218
-4.4157 LISTENER -0.2218
-4.4157 LITERALLY -0.2218
-4.4157 LITERARY -0.2218
-4.4157 LITERATURE -0.2218
-4.4157 LITTLE -0.2218
-4.4157 LIVE -0.2218
-4.4157 LIVER -0.2218
-4.4157 LIVING -0.2218
-4.4157 LOAD -0.2218
-4.4157 LOAN -0.2218
-4.4157 LOBBY -0.2218
-4.4157 LOCAL -0.2218
-4.4157 LOCATE -0.2218
-4.4157 LOCATION -0.2218
-4.4157 LOCK -0.2218
-4.4157 LOG -0.2218
-4.4157 LOGIC -0.2218
-4.4157 LOGICAL -0.2218
-4.4157 LONELY -0.2218
-4.4157 LONG -0.2218
-4.4157 LONG-TERM -0.2218
-4.4157 LONGTIME -0.2218
-4.4157 LOOK -0.2218
-4.4157 LOOP -0.2218
-4.4157 LOOSE -0.2218
-4.4157 LOSE -0.2218
-4.4157 LOSS -0.2218
-4.4157 LOST -0.2218
-4.4157 LOT -0.2218
-4.4157 LOTS -0.2218
-4.4157 LOUD -0.2218
-4.4157 LOVE -0.2218
-4.4157 LOVELY -0.2218
-4.4157 LOVER -0.2218
-4.4157 LOW -0.2218
-4.4157 LOWER -0.2218
-4.4157 LOYAL -0.2218
-4.4157 LOYALTY -0.2218
-4.4157 LUCK -0.2218
-4.4157 LUCKY -0.2218
-4.4157 LUNCH -0.2218
-4.4157 LUNG -0.2218
-4.4157 MACHINE -0.2218
-4.4157 MAD -0.2218
-4.4157 MAGAZINE -0.2218
-4.4157 MAGIC -0.2218
-4.4157 MAGNETIC -0.2218
-4.4157 MAGNITUDE -0.2218
-4.4157 MAIL -0.2218
-4.4157 MAIN -0.2218
-4.4157 MAINLY -0.2218
-4.4157 MAINSTREAM -0.2218
-4.4157 MAINTAIN -0.2218
-4.4157 MAINTENANCE -0.2218
-4.4157 MAJOR -0.2218
-4.4157 MAJORITY -0.2218
-4.4157 MAKE -0.2218
-4.4157 MAKER -0.2218
-4.4157 MAKEUP -0.2218
-4.4157 MALE -0.2218
-4.4157 MALL -0.2218
-4.4157 MAN -0.2218
-4.4157 MANAGE -0.2218
-4.4157 MANAGEMENT -0.2218
-4.4157 MANAGER -0.2218
-4.4157 MANAGING -0.2218
-4.4157 MANDATE -0.2218
-4.4157 MANIPULATE -0.2218
-4.4157 MANNER -0.2218
-4.4157 MANSION -0.2218
-4.4157 MANUFACTURER -0.2218
-4.4157 MANUFACTURING -0.2218
-4.4157 MANY -0.2218
-4.4157 MAP -0.2218
-4.4157 MARBLE -0.2218
-4.4157 MARCH -0.2218
-4.4157 MARGIN -0.2218
-4.4157 MARINE -0.2218
-4.4157 MARK -0.2218
-4.4157 MARKER -0.2218
-4.4157 MARKET -0.2218
-4.4157 MARKETING -0.2218
-4.4157 MARKETPLACE -0.2218
-4.4157 MARRIAGE -0.2218
-4.4157 MARRIED -0.2218
-4.4157 MARRY -0.2218
-4.4157 MASK -0.2218
-4.4157 MASS -0.2218
-4.4157 MASSIVE -0.2218
-4.4157 MASTER -0.2218
-4.4157 MATCH -0.2218
-4.4157 MATE -0.2218
-4.4157 MATERIAL -0.2218
-4.4157 MATH -0.2218
-4.4157 MATHEMATICS -0.2218
-4.4157 MATTER -0.2218
-4.4157 MAXIMUM -0.2218
-4.4157 MAY -0.2218
-4.4157 MAYBE -0.2218
-4.4157 MAYOR -0.2218
-4.4157 ME -0.2218
-4.4157 MEAL -0.2218
-4.4157 MEAN -0.2218
-4.4157 MEANING -0.2218
-4.4157 MEANINGFUL -0.2218
-4.4157 MEANTIME -0.2218
-4.4157 MEANWHILE -0.2218
-4.4157 MEASURE -0.2218
-4.4157 MEASUREMENT -0.2218
-4.4157 MEAT -0.2218
-4.4157 MECHANIC -0.2218
-4.4157 MECHANICAL -0.2218
-4.4157 MECHANISM -0.2218
-4.4157 MEDAL -0.2218
-4.4157 MEDIA -0.2218
-4.4157 MEDICAL -0.2218
-4.4157 MEDICATION -0.2218
-4.4157 MEDICINE -0.2218
-4.4157 MEDIUM -0.2218
-4.4157 MEET -0.2218
-4.4157 MEETING -0.2218
-4.4157 MELT -0.2218
-4.4157 MEMBER -0.2218
-4.4157 MEMBERSHIP -0.2218
-4.4157 MEMORY -0.2218
-4.4157 MENTAL -0.2218
-4.4157 MENTALLY -0.2218
-4.4157 MENTION -0.2218
-4.4157 MENTOR -0.2218
-4.4157 MENU -0.2218
-4.4157 MERCHANT -0.2218
-4.4157 MERE -0.2218
-4.4157 MERELY -0.2218
-4.4157 MERIT -0.2218
-4.4157 MESS -0.2218
-4.4157 MESSAGE -0.2218
-4.4157 METAL -0.2218
-4.4157 METAPHOR -0.2218
-4.4157 METER -0.2218
-4.4157 METHOD -0.2218
-4.4157 METROPOLITAN -0.2218
-4.4157 MEXICAN -0.2218
-4.4157 MIDDLE -0.2218
-4.4157 MIDNIGHT -0.2218
-4.4157 MIDST -0.2218
-4.4157 MIGHT -0.2218
-4.4157 MIGRATION -0.2218
-4.4157 MILD -0.2218
-4.4157 MILITARY -0.2218
-4.4157 MILK -0.2218
-4.4157 MILL -0.2218
-4.4157 MILLION -0.2218
-4.4157 MIND -0.2218
-4.4157 MINE -0.2218
-4.4157 MINERAL -0.2218
-4.4157 MINIMAL -0.2218
-4.4157 MINIMIZE -0.2218
-4.4157 MINIMUM -0.2218
-4.4157 MINISTER -0.2218
-4.4157 MINISTRY -0.2218
-4.4157 MINOR -0.2218
-4.4157 MINORITY -0.2218
-4.4157 MINUTE -0.2218
-4.4157 MIRACLE -0.2218
-4.4157 MIRROR -0.2218
-4.4157 MISS -0.2218
-4.4157 MISSILE -0.2218
-4.4157 MISSING -0.2218
-4.4157 MISSION -0.2218
-4.4157 MISSIONARY -0.2218
-4.4157 MISTAKE -0.2218
-4.4157 MIX -0.2218
-4.4157 MIXED -0.2218
-4.4157 MIXTURE -0.2218
-4.4157 MM-HMM -0.2218
-4.4157 MOBILE -0.2218
-4.4157 MODE -0.2218
-4.4157 MODEL -0.2218
-4.4157 MODERATE -0.2218
-4.4157 MODERN -0.2218
-4.4157 MODEST -0.2218
-4.4157 MODIFY -0.2218
-4.4157 MOLECULE -0.2218
-4.4157 MOM -0.2218
-4.4157 MOMENT -0.2218
-4.4157 MOMENTUM -0.2218
-4.4157 MONEY -0.2218
-4.4157 MONITOR -0.2218
-4.4157 MONKEY -0.2218
-4.4157 MONSTER -0.2218
-4.4157 MONTH -0.2218
-4.4157 MONTHLY -0.2218
-4.4157 MONUMENT -0.2218
-4.4157 MOOD -0.2218
-4.4157 MOON -0.2218
-4.4157 MORAL -0.2218
-4.4157 MORE -0.2218
-4.4157 MOREOVER -0.2218
-4.4157 MORNING -0.2218
-4.4157 MORTALITY -0.2218
-4.4157 MORTGAGE -0.2218
-4.4157 MOST -0.2218
-4.4157 MOSTLY -0.2218
-4.4157 MOTHER -0.2218
-4.4157 MOTION -0.2218
-4.4157 MOTIVATE -0.2218
-4.4157 MOTIVATION -0.2218
-4.4157 MOTIVE -0.2218
-4.4157 MOTOR -0.2218
-4.4157 MOUNT -0.2218
-4.4157 MOUNTAIN -0.2218
-4.4157 MOUSE -0.2218
-4.4157 MOUTH -0.2218
-4.4157 MOVE -0.2218
-4.4157 MOVEMENT -0.2218
-4.4157 MOVIE -0.2218
-4.4157 MR -0.2218
-4.4157 MRS -0.2218
-4.4157 MS -0.2218
-4.4157 MUCH -0.2218
-4.4157 MUD -0.2218
-4.4157 MULTIPLE -0.2218
-4.4157 MUNICIPAL -0.2218
-4.4157 MURDER -0.2218
-4.4157 MUSCLE -0.2218
-4.4157 MUSEUM -0.2218
-4.4157 MUSHROOM -0.2218
-4.4157 MUSIC -0.2218
-4.4157 MUSICAL -0.2218
-4.4157 MUSICIAN -0.2218
-4.4157 MUSLIM -0.2218
-4.4157 MUST -0.2218
-4.4157 MUTTER -0.2218
-4.4157 MUTUAL -0.2218
-4.4157 MY -0.2218
-4.4157 MYSELF -0.2218
-4.4157 MYSTERIOUS -0.2218
-4.4157 MYSTERY -0.2218
-4.4157 MYTH -0.2218
-4.4157 NAIL -0.2218
-4.4157 NAKED -0.2218
-4.4157 NAME -0.2218
-4.4157 NARRATIVE -0.2218
-4.4157 NARROW -0.2218
-4.4157 NASTY -0.2218
-4.4157 NATION -0.2218
-4.4157 NATIONAL -0.2218
-4.4157 NATIONWIDE -0.2218
-4.4157 NATIVE -0.2218
-4.4157 NATURAL -0.2218
-4.4157 NATURALLY -0.2218
-4.4157 NATURE -0.2218
-4.4157 NEAR -0.2218
-4.4157 NEARBY -0.2218
-4.4157 NEARLY -0.2218
-4.4157 NEAT -0.2218
-4.4157 NECESSARILY -0.2218
-4.4157 NECESSARY -0.2218
-4.4157 NECESSITY -0.2218
-4.4157 NECK -0.2218
-4.4157 NEED -0.2218
-4.4157 NEEDLE -0.2218
-4.4157 NEGATIVE -0.2218
-4.4157 NEGOTIATE -0.2218
-4.4157 NEGOTIATION -0.2218
-4.4157 NEIGHBOR -0.2218
-4.4157 NEIGHBORHOOD -0.2218
-4.4157 NEIGHBORING -0.2218
-4.4157 NEITHER -0.2218
-4.4157 NERVE -0.2218
-4.4157 NERVOUS -0.2218
-4.4157 NEST -0.2218
-4.4157 NET -0.2218
-4.4157 NETWORK -0.2218
-4.4157 NEUTRAL -0.2218
-4.4157 NEVER -0.2218
-4.4157 NEVERTHELESS -0.2218
-4.4157 NEW -0.2218
-4.4157 NEWLY -0.2218
-4.4157 NEWS -0.2218
-4.4157 NEWSPAPER -0.2218
-4.4157 NEXT -0.2218
-4.4157 NICE -0.2218
-4.4157 NIGHT -0.2218
-4.4157 NIGHTMARE -0.2218
-4.4157 NINE -0.2218
-4.4157 NO -0.2218
-4.4157 NOBODY -0.2218
-4.4157 NOD -0.2218
-4.4157 NOISE -0.2218
-4.4157 NOMINATION -0.2218
-4.4157 NOMINEE -0.2218
-4.4157 NONE -0.2218
-4.4157 NONETHELESS -0.2218
-4.4157 NONPROFIT -0.2218
-4.4157 NOON -0.2218
-4.4157 NOR -0.2218
-4.4157 NORM -0.2218
-4.4157 NORMAL -0.2218
-4.4157 NORMALLY -0.2218
-4.4157 NORTH -0.2218
-4.4157 NORTHEAST -0.2218
-4.4157 NORTHERN -0.2218
-4.4157 NORTHWEST -0.2218
-4.4157 NOSE -0.2218
-4.4157 NOT -0.2218
-4.4157 NOTE -0.2218
-4.4157 NOTEBOOK -0.2218
-4.4157 NOTHING -0.2218
-4.4157 NOTICE -0.2218
-4.4157 NOTION -0.2218
-4.4157 NOVEL -0.2218
-4.4157 NOW -0.2218
-4.4157 NOWHERE -0.2218
-4.4157 NUCLEAR -0.2218
-4.4157 NUMBER -0.2218
-4.4157 NUMEROUS -0.2218
-4.4157 NURSE -0.2218
-4.4157 NUT -0.2218
-4.4157 NUTRIENT -0.2218
-4.4157 O'CLOCK -0.2218
-4.4157 OAK -0.2218
-4.4157 OBJECT -0.2218
-4.4157 OBJECTION -0.2218
-4.4157 OBJECTIVE -0.2218
-4.4157 OBLIGATION -0.2218
-4.4157 OBSERVATION -0.2218
-4.4157 OBSERVE -0.2218
-4.4157 OBSERVER -0.2218
-4.4157 OBSTACLE -0.2218
-4.4157 OBTAIN -0.2218
-4.4157 OBVIOUS -0.2218
-4.4157 OBVIOUSLY -0.2218
-4.4157 OCCASION -0.2218
-4.4157 OCCASIONAL -0.2218
-4.4157 OCCASIONALLY -0.2218
-4.4157 OCCUPATION -0.2218
-4.4157 OCCUPY -0.2218
-4.4157 OCCUR -0.2218
-4.4157 OCEAN -0.2218
-4.4157 ODD -0.2218
-4.4157 ODDS -0.2218
-4.4157 OF -0.2218
-4.4157 OFF -0.2218
-4.4157 OFFENDER -0.2218
-4.4157 OFFENSE -0.2218
-4.4157 OFFENSIVE -0.2218
-4.4157 OFFER -0.2218
-4.4157 OFFERING -0.2218
-4.4157 OFFICE -0.2218
-4.4157 OFFICER -0.2218
-4.4157 OFFICIAL -0.2218
-4.4157 OFFICIALLY -0.2218
-4.4157 OFTEN -0.2218
-4.4157 OH -0.2218
-4.4157 OIL -0.2218
-4.4157 OK -0.2218
-4.4157 OKAY -0.2218
-4.4157 OLD -0.2218
-4.4157 OLD-FASHIONED -0.2218
-4.4157 OLYMPIC -0.2218
-4.4157 OLYMPICS -0.2218
-4.4157 ON -0.2218
-4.4157 ONCE -0.2218
-4.4157 ONE -0.2218
-4.4157 ONE-THIRD -0.2218
-4.4157 ONGOING -0.2218
-4.4157 ONION -0.2218
-4.4157 ONLINE -0.2218
-4.4157 ONLY -0.2218
-4.4157 ONTO -0.2218
-4.4157 OPEN -0.2218
-4.4157 OPENING -0.2218
-4.4157 OPENLY -0.2218
-4.4157 OPERA -0.2218
-4.4157 OPERATE -0.2218
-4.4157 OPERATING -0.2218
-4.4157 OPERATION -0.2218
-4.4157 OPERATOR -0.2218
-4.4157 OPINION -0.2218
-4.4157 OPPONENT -0.2218
-4.4157 OPPORTUNITY -0.2218
-4.4157 OPPOSE -0.2218
-4.4157 OPPOSED -0.2218
-4.4157 OPPOSITE -0.2218
-4.4157 OPPOSITION -0.2218
-4.4157 OPT -0.2218
-4.4157 OPTIMISTIC -0.2218
-4.4157 OPTION -0.2218
-4.4157 OR -0.2218
-4.4157 ORAL -0.2218
-4.4157 ORANGE -0.2218
-4.4157 ORBIT -0.2218
-4.4157 ORDER -0.2218
-4.4157 ORDINARY -0.2218
-4.4157 ORGAN -0.2218
-4.4157 ORGANIC -0.2218
-4.4157 ORGANISM -0.2218
-4.4157 ORGANIZATION -0.2218
-4.4157 ORGANIZATIONAL -0.2218
-4.4157 ORGANIZE -0.2218
-4.4157 ORGANIZED -0.2218
-4.4157 ORIENTATION -0.2218
-4.4157 ORIGIN -0.2218
-4.4157 ORIGINAL -0.2218
-4.4157 ORIGINALLY -0.2218
-4.4157 OTHER -0.2218
-4.4157 OTHERS -0.2218
-4.4157 OTHERWISE -0.2218
-4.4157 OUGHT -0.2218
-4.4157 OUR -0.2218
-4.4157 OURS -0.2218
-4.4157 OURSELVES -0.2218
-4.4157 OUT -0.2218
-4.4157 OUTCOME -0.2218
-4.4157 OUTDOOR -0.2218
-4.4157 OUTER -0.2218
-4.4157 OUTFIT -0.2218
-4.4157 OUTLET -0.2218
-4.4157 OUTLINE -0.2218
-4.4157 OUTPUT -0.2218
-4.4157 OUTSIDE -0.2218
-4.4157 OUTSIDER -0.2218
-4.4157 OUTSTANDING -0.2218
-4.4157 OVEN -0.2218
-4.4157 OVER -0.2218
-4.4157 OVERALL -0.2218
-4.4157 OVERCOME -0.2218
-4.4157 OVERLOOK -0.2218
-4.4157 OVERNIGHT -0.2218
-4.4157 OVERSEE -0.2218
-4.4157 OVERWHELM -0.2218
-4.4157 OVERWHELMING -0.2218
-4.4157 OWE -0.2218
-4.4157 OWN -0.2218
-4.4157 OWNER -0.2218
-4.4157 OWNERSHIP -0.2218
-4.4157 OXYGEN -0.2218
-4.4157 PACE -0.2218
-4.4157 PACK -0.2218
-4.4157 PACKAGE -0.2218
-4.4157 PAD -0.2218
-4.4157 PAGE -0.2218
-4.4157 PAIN -0.2218
-4.4157 PAINFUL -0.2218
-4.4157 PAINT -0.2218
-4.4157 PAINTER -0.2218
-4.4157 PAINTING -0.2218
-4.4157 PAIR -0.2218
-4.4157 PALACE -0.2218
-4.4157 PALE -0.2218
-4.4157 PALESTINIAN -0.2218
-4.4157 PALM -0.2218
-4.4157 PAN -0.2218
-4.4157 PANEL -0.2218
-4.4157 PANIC -0.2218
-4.4157 PANT -0.2218
-4.4157 PAPER -0.2218
-4.4157 PARADE -0.2218
-4.4157 PARENT -0.2218
-4.4157 PARENTAL -0.2218
-4.4157 PARISH -0.2218
-4.4157 PARK -0.2218
-4.4157 PARKING -0.2218
-4.4157 PART -0.2218
-4.4157 PARTIAL -0.2218
-4.4157 PARTIALLY -0.2218
-4.4157 PARTICIPANT -0.2218
-4.4157 PARTICIPATE -0.2218
-4.4157 PARTICIPATION -0.2218
-4.4157 PARTICLE -0.2218
-4.4157 PARTICULAR -0.2218
-4.4157 PARTICULARLY -0.2218
-4.4157 PARTLY -0.2218
-4.4157 PARTNER -0.2218
-4.4157 PARTNERSHIP -0.2218
-4.4157 PARTY -0.2218
-4.4157 PASS -0.2218
-4.4157 PASSAGE -0.2218
-4.4157 PASSENGER -0.2218
-4.4157 PASSING -0.2218
-4.4157 PASSION -0.2218
-4.4157 PAST -0.2218
-4.4157 PASTA -0.2218
-4.4157 PASTOR -0.2218
-4.4157 PAT -0.2218
-4.4157 PATCH -0.2218
-4.4157 PATENT -0.2218
-4.4157 PATH -0.2218
-4.4157 PATIENCE -0.2218
-4.4157 PATIENT -0.2218
-4.4157 PATROL -0.2218
-4.4157 PATRON -0.2218
-4.4157 PATTERN -0.2218
-4.4157 PAUSE -0.2218
-4.4157 PAY -0.2218
-4.4157 PAYMENT -0.2218
-4.4157 PC -0.2218
-4.4157 PEACE -0.2218
-4.4157 PEACEFUL -0.2218
-4.4157 PEAK -0.2218
-4.4157 PEANUT -0.2218
-4.4157 PEASANT -0.2218
-4.4157 PEEL -0.2218
-4.4157 PEER -0.2218
-4.4157 PEN -0.2218
-4.4157 PENALTY -0.2218
-4.4157 PENCIL -0.2218
-4.4157 PENSION -0.2218
-4.4157 PEOPLE -0.2218
-4.4157 PEPPER -0.2218
-4.4157 PER -0.2218
-4.4157 PERCEIVE -0.2218
-4.4157 PERCEIVED -0.2218
-4.4157 PERCENTAGE -0.2218
-4.4157 PERCEPTION -0.2218
-4.4157 PERFECT -0.2218
-4.4157 PERFECTLY -0.2218
-4.4157 PERFORM -0.2218
-4.4157 PERFORMANCE -0.2218
-4.4157 PERFORMER -0.2218
-4.4157 PERHAPS -0.2218
-4.4157 PERIOD -0.2218
-4.4157 PERMANENT -0.2218
-4.4157 PERMISSION -0.2218
-4.4157 PERMIT -0.2218
-4.4157 PERSIAN -0.2218
-4.4157 PERSIST -0.2218
-4.4157 PERSON -0.2218
-4.4157 PERSONAL -0.2218
-4.4157 PERSONALITY -0.2218
-4.4157 PERSONALLY -0.2218
-4.4157 PERSONNEL -0.2218
-4.4157 PERSPECTIVE -0.2218
-4.4157 PERSUADE -0.2218
-4.4157 PET -0.2218
-4.4157 PHASE -0.2218
-4.4157 PHENOMENON -0.2218
-4.4157 PHILOSOPHICAL -0.2218
-4.4157 PHILOSOPHY -0.2218
-4.4157 PHONE -0.2218
-4.4157 PHOTO -0.2218
-4.4157 PHOTOGRAPH -0.2218
-4.4157 PHOTOGRAPHER -0.2218
-4.4157 PHOTOGRAPHY -0.2218
-4.4157 PHRASE -0.2218
-4.4157 PHYSICAL -0.2218
-4.4157 PHYSICALLY -0.2218
-4.4157 PHYSICIAN -0.2218
-4.4157 PHYSICS -0.2218
-4.4157 PIANO -0.2218
-4.4157 PICK -0.2218
-4.4157 PICKUP -0.2218
-4.4157 PICTURE -0.2218
-4.4157 PIE -0.2218
-4.4157 PIECE -0.2218
-4.4157 PIG -0.2218
-4.4157 PILE -0.2218
-4.4157 PILL -0.2218
-4.4157 PILLOW -0.2218
-4.4157 PILOT -0.2218
-4.4157 PIN -0.2218
-4.4157 PINE -0.2218
-4.4157 PINK -0.2218
-4.4157 PIONEER -0.2218
-4.4157 PIPE -0.2218
-4.4157 PIT -0.2218
-4.4157 PITCH -0.2218
-4.4157 PITCHER -0.2218
-4.4157 PIZZA -0.2218
-4.4157 PLACE -0.2218
-4.4157 PLACEMENT -0.2218
-4.4157 PLAIN -0.2218
-4.4157 PLAN -0.2218
-4.4157 PLANE -0.2218
-4.4157 PLANET -0.2218
-4.4157 PLANNER -0.2218
-4.4157 PLANNING -0.2218
-4.4157 PLANT -0.2218
-4.4157 PLASTIC -0.2218
-4.4157 PLATE -0.2218
-4.4157 PLATFORM -0.2218
-4.4157 PLAY -0.2218
-4.4157 PLAYER -0.2218
-4.4157 PLAYOFF -0.2218
-4.4157 PLEA -0.2218
-4.4157 PLEAD -0.2218
-4.4157 PLEASANT -0.2218
-4.4157 PLEASE -0.2218
-4.4157 PLEASED -0.2218
-4.4157 PLEASURE -0.2218
-4.4157 PLENTY -0.2218
-4.4157 PLOT -0.2218
-4.4157 PLUNGE -0.2218
-4.4157 PLUS -0.2218
-4.4157 PM -0.2218
-4.4157 POCKET -0.2218
-4.4157 POEM -0.2218
-4.4157 POET -0.2218
-4.4157 POETRY -0.2218
-4.4157 POINT -0.2218
-4.4157 POKE -0.2218
-4.4157 POLE -0.2218
-4.4157 POLICE -0.2218
-4.4157 POLICEMAN -0.2218
-4.4157 POLICY -0.2218
-4.4157 POLITICAL -0.2218
-4.4157 POLITICALLY -0.2218
-4.4157 POLITICIAN -0.2218
-4.4157 POLITICS -0.2218
-4.4157 POLL -0.2218
-4.4157 POLLUTION -0.2218
-4.4157 POND -0.2218
-4.4157 POOL -0.2218
-4.4157 POOR -0.2218
-4.4157 POP -0.2218
-4.4157 POPULAR -0.2218
-4.4157 POPULARITY -0.2218
-4.4157 POPULATION -0.2218
-4.4157 PORCH -0.2218
-4.4157 PORK -0.2218
-4.4157 PORT -0.2218
-4.4157 PORTFOLIO -0.2218
-4.4157 PORTION -0.2218
-4.4157 PORTRAIT -0.2218
-4.4157 PORTRAY -0.2218
-4.4157 POSE -0.2218
-4.4157 POSITION -0.2218
-4.4157 POSITIVE -0.2218
-4.4157 POSSESS -0.2218
-4.4157 POSSESSION -0.2218
-4.4157 POSSIBILITY -0.2218
-4.4157 POSSIBLE -0.2218
-4.4157 POSSIBLY -0.2218
-4.4157 POST -0.2218
-4.4157 POSTER -0.2218
-4.4157 POT -0.2218
-4.4157 POTATO -0.2218
-4.4157 POTENTIAL -0.2218
-4.4157 POTENTIALLY -0.2218
-4.4157 POUND -0.2218
-4.4157 POUR -0.2218
-4.4157 POVERTY -0.2218
-4.4157 POWDER -0.2218
-4.4157 POWER -0.2218
-4.4157 POWERFUL -0.2218
-4.4157 PRACTICAL -0.2218
-4.4157 PRACTICALLY -0.2218
-4.4157 PRACTICE -0.2218
-4.4157 PRACTITIONER -0.2218
-4.4157 PRAISE -0.2218
-4.4157 PRAY -0.2218
-4.4157 PRAYER -0.2218
-4.4157 PREACH -0.2218
-4.4157 PRECIOUS -0.2218
-4.4157 PRECISE -0.2218
-4.4157 PRECISELY -0.2218
-4.4157 PREDATOR -0.2218
-4.4157 PREDICT -0.2218
-4.4157 PREDICTION -0.2218
-4.4157 PREFER -0.2218
-4.4157 PREFERENCE -0.2218
-4.4157 PREGNANCY -0.2218
-4.4157 PREGNANT -0.2218
-4.4157 PRELIMINARY -0.2218
-4.4157 PREMISE -0.2218
-4.4157 PREMIUM -0.2218
-4.4157 PREPARATION -0.2218
-4.4157 PREPARE -0.2218
-4.4157 PRESCRIPTION -0.2218
-4.4157 PRESENCE -0.2218
-4.4157 PRESENT -0.2218
-4.4157 PRESENTATION -0.2218
-4.4157 PRESERVE -0.2218
-4.4157 PRESIDENCY -0.2218
-4.4157 PRESIDENT -0.2218
-4.4157 PRESIDENTIAL -0.2218
-4.4157 PRESS -0.2218
-4.4157 PRESSURE -0.2218
-4.4157 PRESUMABLY -0.2218
-4.4157 PRETEND -0.2218
-4.4157 PRETTY -0.2218
-4.4157 PREVAIL -0.2218
-4.4157 PREVENT -0.2218
-4.4157 PREVENTION -0.2218
-4.4157 PREVIOUS -0.2218
-4.4157 PREVIOUSLY -0.2218
-4.4157 PRICE -0.2218
-4.4157 PRIDE -0.2218
-4.4157 PRIEST -0.2218
-4.4157 PRIMARILY -0.2218
-4.4157 PRIMARY -0.2218
-4.4157 PRIME -0.2218
-4.4157 PRINCIPAL -0.2218
-4.4157 PRINCIPLE -0.2218
-4.4157 PRINT -0.2218
-4.4157 PRIOR -0.2218
-4.4157 PRIORITY -0.2218
-4.4157 PRISON -0.2218
-4.4157 PRISONER -0.2218
-4.4157 PRIVACY -0.2218
-4.4157 PRIVATE -0.2218
-4.4157 PRIVATELY -0.2218
-4.4157 PRIVILEGE -0.2218
-4.4157 PRIZE -0.2218
-4.4157 PRO -0.2218
-4.4157 PROBABLY -0.2218
-4.4157 PROBLEM -0.2218
-4.4157 PROCEDURE -0.2218
-4.4157 PROCEED -0.2218
-4.4157 PROCESS -0.2218
-4.4157 PROCESSING -0.2218
-4.4157 PROCESSOR -0.2218
-4.4157 PROCLAIM -0.2218
-4.4157 PRODUCE -0.2218
-4.4157 PRODUCER -0.2218
-4.4157 PRODUCT -0.2218
-4.4157 PRODUCTION -0.2218
-4.4157 PRODUCTIVE -0.2218
-4.4157 PRODUCTIVITY -0.2218
-4.4157 PROFESSION -0.2218
-4.4157 PROFESSIONAL -0.2218
-4.4157 PROFESSOR -0.2218
-4.4157 PROFILE -0.2218
-4.4157 PROFIT -0.2218
-4.4157 PROFOUND -0.2218
-4.4157 PROGRAM -0.2218
-4.4157 PROGRAMMING -0.2218
-4.4157 PROGRESS -0.2218
-4.4157 PROGRESSIVE -0.2218
-4.4157 PROHIBIT -0.2218
-4.4157 PROJECT -0.2218
-4.4157 PROJECTION -0.2218
-4.4157 PROMINENT -0.2218
-4.4157 PROMISE -0.2218
-4.4157 PROMISING -0.2218
-4.4157 PROMOTE -0.2218
-4.4157 PROMOTION -0.2218
-4.4157 PROMPT -0.2218
-4.4157 PROOF -0.2218
-4.4157 PROPER -0.2218
-4.4157 PROPERLY -0.2218
-4.4157 PROPERTY -0.2218
-4.4157 PROPORTION -0.2218
-4.4157 PROPOSAL -0.2218
-4.4157 PROPOSE -0.2218
-4.4157 PROPOSED -0.2218
-4.4157 PROSECUTION -0.2218
-4.4157 PROSECUTOR -0.2218
-4.4157 PROSPECT -0.2218
-4.4157 PROTECT -0.2218
-4.4157 PROTECTION -0.2218
-4.4157 PROTECTIVE -0.2218
-4.4157 PROTEIN -0.2218
-4.4157 PROTEST -0.2218
-4.4157 PROTOCOL -0.2218
-4.4157 PROUD -0.2218
-4.4157 PROVE -0.2218
-4.4157 PROVIDE -0.2218
-4.4157 PROVIDED -0.2218
-4.4157 PROVIDER -0.2218
-4.4157 PROVINCE -0.2218
-4.4157 PROVISION -0.2218
-4.4157 PROVOKE -0.2218
-4.4157 PSYCHOLOGICAL -0.2218
-4.4157 PSYCHOLOGIST -0.2218
-4.4157 PSYCHOLOGY -0.2218
-4.4157 PUBLIC -0.2218
-4.4157 PUBLICATION -0.2218
-4.4157 PUBLICITY -0.2218
-4.4157 PUBLICLY -0.2218
-4.4157 PUBLISH -0.2218
-4.4157 PUBLISHER -0.2218
-4.4157 PULL -0.2218
-4.4157 PULSE -0.2218
-4.4157 PUMP -0.2218
-4.4157 PUNCH -0.2218
-4.4157 PUNISH -0.2218
-4.4157 PUNISHMENT -0.2218
-4.4157 PURCHASE -0.2218
-4.4157 PURE -0.2218
-4.4157 PURPLE -0.2218
-4.4157 PURPOSE -0.2218
-4.4157 PURSE -0.2218
-4.4157 PURSUE -0.2218
-4.4157 PURSUIT -0.2218
-4.4157 PUSH -0.2218
-4.4157 PUT -0.2218
-4.4157 PUZZLE -0.2218
-4.4157 QUALIFY -0.2218
-4.4157 QUALITY -0.2218
-4.4157 QUANTITY -0.2218
-4.4157 QUARTER -0.2218
-4.4157 QUARTERBACK -0.2218
-4.4157 QUEEN -0.2218
-4.4157 QUEST -0.2218
-4.4157 QUESTION -0.2218
-4.4157 QUESTIONNAIRE -0.2218
-4.4157 QUICK -0.2218
-4.4157 QUICKLY -0.2218
-4.4157 QUIET -0.2218
-4.4157 QUIETLY -0.2218
-4.4157 QUIT -0.2218
-4.4157 QUITE -0.2218
-4.4157 QUOTE -0.2218
-4.4157 RABBIT -0.2218
-4.4157 RACE -0.2218
-4.4157 RACIAL -0.2218
-4.4157 RACISM -0.2218
-4.4157 RACK -0.2218
-4.4157 RADAR -0.2218
-4.4157 RADIATION -0.2218
-4.4157 RADICAL -0.2218
-4.4157 RADIO -0.2218
-4.4157 RAGE -0.2218
-4.4157 RAIL -0.2218
-4.4157 RAILROAD -0.2218
-4.4157 RAIN -0.2218
-4.4157 RAISE -0.2218
-4.4157 RALLY -0.2218
-4.4157 RANCH -0.2218
-4.4157 RANDOM -0.2218
-4.4157 RANGE -0.2218
-4.4157 RANK -0.2218
-4.4157 RAPE -0.2218
-4.4157 RAPID -0.2218
-4.4157 RAPIDLY -0.2218
-4.4157 RARE -0.2218
-4.4157 RARELY -0.2218
-4.4157 RAT -0.2218
-4.4157 RATE -0.2218
-4.4157 RATHER -0.2218
-4.4157 RATING -0.2218
-4.4157 RATIO -0.2218
-4.4157 RATIONAL -0.2218
-4.4157 RAW -0.2218
-4.4157 RE -0.2218
-4.4157 REACH -0.2218
-4.4157 REACT -0.2218
-4.4157 REACTION -0.2218
-4.4157 READ -0.2218
-4.4157 READER -0.2218
-4.4157 READILY -0.2218
-4.4157 READING -0.2218
-4.4157 READY -0.2218
-4.4157 REAL -0.2218
-4.4157 REALISTIC -0.2218
-4.4157 REALITY -0.2218
-4.4157 REALIZE -0.2218
-4.4157 REALLY -0.2218
-4.4157 REALM -0.2218
-4.4157 REAR -0.2218
-4.4157 REASON -0.2218
-4.4157 REASONABLE -0.2218
-4.4157 REBEL -0.2218
-4.4157 REBUILD -0.2218
-4.4157 RECALL -0.2218
-4.4157 RECEIVE -0.2218
-4.4157 RECEIVER -0.2218
-4.4157 RECENT -0.2218
-4.4157 RECENTLY -0.2218
-4.4157 RECEPTION -0.2218
-4.4157 RECESSION -0.2218
-4.4157 RECIPE -0.2218
-4.4157 RECIPIENT -0.2218
-4.4157 RECOGNITION -0.2218
-4.4157 RECOGNIZE -0.2218
-4.4157 RECOMMEND -0.2218
-4.4157 RECOMMENDATION -0.2218
-4.4157 RECORD -0.2218
-4.4157 RECORDING -0.2218
-4.4157 RECOVER -0.2218
-4.4157 RECOVERY -0.2218
-4.4157 RECRUIT -0.2218
-4.4157 RED -0.2218
-4.4157 REDUCE -0.2218
-4.4157 REDUCTION -0.2218
-4.4157 REFER -0.2218
-4.4157 REFERENCE -0.2218
-4.4157 REFLECT -0.2218
-4.4157 REFLECTION -0.2218
-4.4157 REFORM -0.2218
-4.4157 REFRIGERATOR -0.2218
-4.4157 REFUGE -0.2218
-4.4157 REFUGEE -0.2218
-4.4157 REFUSE -0.2218
-4.4157 REGAIN -0.2218
-4.4157 REGARD -0.2218
-4.4157 REGARDING -0.2218
-4.4157 REGARDLESS -0.2218
-4.4157 REGIME -0.2218
-4.4157 REGION -0.2218
-4.4157 REGIONAL -0.2218
-4.4157 REGISTER -0.2218
-4.4157 REGRET -0.2218
-4.4157 REGULAR -0.2218
-4.4157 REGULARLY -0.2218
-4.4157 REGULATE -0.2218
-4.4157 REGULATION -0.2218
-4.4157 REGULATOR -0.2218
-4.4157 REGULATORY -0.2218
-4.4157 REHABILITATION -0.2218
-4.4157 REINFORCE -0.2218
-4.4157 REJECT -0.2218
-4.4157 RELATE -0.2218
-4.4157 RELATED -0.2218
-4.4157 RELATION -0.2218
-4.4157 RELATIONSHIP -0.2218
-4.4157 RELATIVE -0.2218
-4.4157 RELATIVELY -0.2218
-4.4157 RELAX -0.2218
-4.4157 RELEASE -0.2218
-4.4157 RELEVANT -0.2218
-4.4157 RELIABILITY -0.2218
-4.4157 RELIABLE -0.2218
-4.4157 RELIEF -0.2218
-4.4157 RELIEVE -0.2218
-4.4157 RELIGION -0.2218
-4.4157 RELIGIOUS -0.2218
-4.4157 RELUCTANT -0.2218
-4.4157 RELY -0.2218
-4.4157 REMAIN -0.2218
-4.4157 REMAINING -0.2218
-4.4157 REMARK -0.2218
-4.4157 REMARKABLE -0.2218
-4.4157 REMEMBER -0.2218
-4.4157 REMIND -0.2218
-4.4157 REMINDER -0.2218
-4.4157 REMOTE -0.2218
-4.4157 REMOVAL -0.2218
-4.4157 REMOVE -0.2218
-4.4157 RENDER -0.2218
-4.4157 RENT -0.2218
-4.4157 RENTAL -0.2218
-4.4157 REPAIR -0.2218
-4.4157 REPEAT -0.2218
-4.4157 REPEATEDLY -0.2218
-4.4157 REPLACE -0.2218
-4.4157 REPLACEMENT -0.2218
-4.4157 REPLY -0.2218
-4.4157 REPORT -0.2218
-4.4157 REPORTEDLY -0.2218
-4.4157 REPORTER -0.2218
-4.4157 REPORTING -0.2218
-4.4157 REPRESENT -0.2218
-4.4157 REPRESENTATION -0.2218
-4.4157 REPRESENTATIVE -0.2218
-4.4157 REPUBLIC -0.2218
-4.4157 REPUBLICAN -0.2218
-4.4157 REPUTATION -0.2218
-4.4157 REQUEST -0.2218
-4.4157 REQUIRE -0.2218
-4.4157 REQUIRED -0.2218
-4.4157 REQUIREMENT -0.2218
-4.4157 RESCUE -0.2218
-4.4157 RESEARCH -0.2218
-4.4157 RESEARCHER -0.2218
-4.4157 RESEMBLE -0.2218
-4.4157 RESERVATION -0.2218
-4.4157 RESERVE -0.2218
-4.4157 RESIDENCE -0.2218
-4.4157 RESIDENT -0.2218
-4.4157 RESIDENTIAL -0.2218
-4.4157 RESIGN -0.2218
-4.4157 RESIST -0.2218
-4.4157 RESISTANCE -0.2218
-4.4157 RESOLUTION -0.2218
-4.4157 RESOLVE -0.2218
-4.4157 RESORT -0.2218
-4.4157 RESOURCE -0.2218
-4.4157 RESPECT -0.2218
-4.4157 RESPECTIVELY -0.2218
-4.4157 RESPOND -0.2218
-4.4157 RESPONDENT -0.2218
-4.4157 RESPONSE -0.2218
-4.4157 RESPONSIBILITY -0.2218
-4.4157 RESPONSIBLE -0.2218
-4.4157 REST -0.2218
-4.4157 RESTAURANT -0.2218
-4.4157 RESTORE -0.2218
-4.4157 RESTRICT -0.2218
-4.4157 RESTRICTION -0.2218
-4.4157 RESULT -0.2218
-4.4157 RESUME -0.2218
-4.4157 RETAIL -0.2218
-4.4157 RETAILER -0.2218
-4.4157 RETAIN -0.2218
-4.4157 RETIRE -0.2218
-4.4157 RETIRED -0.2218
-4.4157 RETIREMENT -0.2218
-4.4157 RETREAT -0.2218
-4.4157 RETURN -0.2218
-4.4157 REVEAL -0.2218
-4.4157 REVELATION -0.2218
-4.4157 REVENUE -0.2218
-4.4157 REVERSE -0.2218
-4.4157 REVIEW -0.2218
-4.4157 REVOLUTION -0.2218
-4.4157 REVOLUTIONARY -0.2218
-4.4157 REWARD -0.2218
-4.4157 RHETORIC -0.2218
-4.4157 RHYTHM -0.2218
-4.4157 RIB -0.2218
-4.4157 RIBBON -0.2218
-4.4157 RICE -0.2218
-4.4157 RICH -0.2218
-4.4157 RID -0.2218
-4.4157 RIDE -0.2218
-4.4157 RIDER -0.2218
-4.4157 RIDGE -0.2218
-4.4157 RIDICULOUS -0.2218
-4.4157 RIFLE -0.2218
-4.4157 RIGHT -0.2218
-4.4157 RIM -0.2218
-4.4157 RING -0.2218
-4.4157 RIOT -0.2218
-4.4157 RIP -0.2218
-4.4157 RISE -0.2218
-4.4157 RISK -0.2218
-4.4157 RISKY -0.2218
-4.4157 RITUAL -0.2218
-4.4157 RIVAL -0.2218
-4.4157 RIVER -0.2218
-4.4157 ROAD -0.2218
-4.4157 ROBOT -0.2218
-4.4157 ROCK -0.2218
-4.4157 ROCKET -0.2218
-4.4157 ROD -0.2218
-4.4157 ROLE -0.2218
-4.4157 ROLL -0.2218
-4.4157 ROLLING -0.2218
-4.4157 ROMAN -0.2218
-4.4157 ROMANCE -0.2218
-4.4157 ROMANTIC -0.2218
-4.4157 ROOF -0.2218
-4.4157 ROOM -0.2218
-4.4157 ROOT -0.2218
-4.4157 ROPE -0.2218
-4.4157 ROSE -0.2218
-4.4157 ROUGH -0.2218
-4.4157 ROUGHLY -0.2218
-4.4157 ROUND -0.2218
-4.4157 ROUTE -0.2218
-4.4157 ROUTINE -0.2218
-4.4157 ROUTINELY -0.2218
-4.4157 ROW -0.2218
-4.4157 ROYAL -0.2218
-4.4157 RUB -0.2218
-4.4157 RUBBER -0.2218
-4.4157 RUIN -0.2218
-4.4157 RULE -0.2218
-4.4157 RULING -0.2218
-4.4157 RUMOR -0.2218
-4.4157 RUN -0.2218
-4.4157 RUNNER -0.2218
-4.4157 RUNNING -0.2218
-4.4157 RURAL -0.2218
-4.4157 RUSH -0.2218
-4.4157 RUSSIAN -0.2218
-4.4157 SACK -0.2218
-4.4157 SACRED -0.2218
-4.4157 SACRIFICE -0.2218
-4.4157 SAD -0.2218
-4.4157 SAFE -0.2218
-4.4157 SAFELY -0.2218
-4.4157 SAFETY -0.2218
-4.4157 SAIL -0.2218
-4.4157 SAKE -0.2218
-4.4157 SALAD -0.2218
-4.4157 SALARY -0.2218
-4.4157 SALE -0.2218
-4.4157 SALES -0.2218
-4.4157 SALMON -0.2218
-4.4157 SALT -0.2218
-4.4157 SAME -0.2218
-4.4157 SAMPLE -0.2218
-4.4157 SANCTION -0.2218
-4.4157 SAND -0.2218
-4.4157 SANDWICH -0.2218
-4.4157 SATELLITE -0.2218
-4.4157 SATISFACTION -0.2218
-4.4157 SATISFY -0.2218
-4.4157 SAUCE -0.2218
-4.4157 SAVE -0.2218
-4.4157 SAVING -0.2218
-4.4157 SAY -0.2218
-4.4157 SCALE -0.2218
-4.4157 SCAN -0.2218
-4.4157 SCANDAL -0.2218
-4.4157 SCARE -0.2218
-4.4157 SCARED -0.2218
-4.4157 SCARY -0.2218
-4.4157 SCATTER -0.2218
-4.4157 SCENARIO -0.2218
-4.4157 SCENE -0.2218
-4.4157 SCENT -0.2218
-4.4157 SCHEDULE -0.2218
-4.4157 SCHEME -0.2218
-4.4157 SCHOLAR -0.2218
-4.4157 SCHOLARSHIP -0.2218
-4.4157 SCHOOL -0.2218
-4.4157 SCIENCE -0.2218
-4.4157 SCIENTIFIC -0.2218
-4.4157 SCIENTIST -0.2218
-4.4157 SCOPE -0.2218
-4.4157 SCORE -0.2218
-4.4157 SCRAMBLE -0.2218
-4.4157 SCRATCH -0.2218
-4.4157 SCREAM -0.2218
-4.4157 SCREEN -0.2218
-4.4157 SCREENING -0.2218
-4.4157 SCREW -0.2218
-4.4157 SCRIPT -0.2218
-4.4157 SCULPTURE -0.2218
-4.4157 SEA -0.2218
-4.4157 SEAL -0.2218
-4.4157 SEARCH -0.2218
-4.4157 SEASON -0.2218
-4.4157 SEAT -0.2218
-4.4157 SECOND -0.2218
-4.4157 SECONDARY -0.2218
-4.4157 SECRET -0.2218
-4.4157 SECRETARY -0.2218
-4.4157 SECTION -0.2218
-4.4157 SECTOR -0.2218
-4.4157 SECULAR -0.2218
-4.4157 SECURE -0.2218
-4.4157 SECURITY -0.2218
-4.4157 SEE -0.2218
-4.4157 SEED -0.2218
-4.4157 SEEK -0.2218
-4.4157 SEEM -0.2218
-4.4157 SEEMINGLY -0.2218
-4.4157 SEGMENT -0.2218
-4.4157 SEIZE -0.2218
-4.4157 SELDOM -0.2218
-4.4157 SELECT -0.2218
-4.4157 SELECTED -0.2218
-4.4157 SELECTION -0.2218
-4.4157 SELF -0.2218
-4.4157 SELF-ESTEEM -0.2218
-4.4157 SELL -0.2218
-4.4157 SELLER -0.2218
-4.4157 SEMINAR -0.2218
-4.4157 SENATE -0.2218
-4.4157 SENATOR -0.2218
-4.4157 SEND -0.2218
-4.4157 SENIOR -0.2218
-4.4157 SENSATION -0.2218
-4.4157 SENSE -0.2218
-4.4157 SENSITIVE -0.2218
-4.4157 SENSITIVITY -0.2218
-4.4157 SENTENCE -0.2218
-4.4157 SENTIMENT -0.2218
-4.4157 SEPARATE -0.2218
-4.4157 SEPARATION -0.2218
-4.4157 SEQUENCE -0.2218
-4.4157 SERIES -0.2218
-4.4157 SERIOUS -0.2218
-4.4157 SERIOUSLY -0.2218
-4.4157 SERVANT -0.2218
-4.4157 SERVE -0.2218
-4.4157 SERVICE -0.2218
-4.4157 SERVING -0.2218
-4.4157 SESSION -0.2218
-4.4157 SET -0.2218
-4.4157 SETTING -0.2218
-4.4157 SETTLE -0.2218
-4.4157 SETTLEMENT -0.2218
-4.4157 SEVEN -0.2218
-4.4157 SEVENTH -0.2218
-4.4157 SEVERAL -0.2218
-4.4157 SEVERE -0.2218
-4.4157 SEVERELY -0.2218
-4.4157 SEX -0.2218
-4.4157 SEXUAL -0.2218
-4.4157 SEXUALITY -0.2218
-4.4157 SEXUALLY -0.2218
-4.4157 SEXY -0.2218
-4.4157 SHADE -0.2218
-4.4157 SHADOW -0.2218
-4.4157 SHAKE -0.2218
-4.4157 SHALL -0.2218
-4.4157 SHALLOW -0.2218
-4.4157 SHAME -0.2218
-4.4157 SHAPE -0.2218
-4.4157 SHARE -0.2218
-4.4157 SHARED -0.2218
-4.4157 SHAREHOLDER -0.2218
-4.4157 SHARK -0.2218
-4.4157 SHARP -0.2218
-4.4157 SHARPLY -0.2218
-4.4157 SHE -0.2218
-4.4157 SHED -0.2218
-4.4157 SHEEP -0.2218
-4.4157 SHEER -0.2218
-4.4157 SHEET -0.2218
-4.4157 SHELF -0.2218
-4.4157 SHELL -0.2218
-4.4157 SHELTER -0.2218
-4.4157 SHIFT -0.2218
-4.4157 SHINE -0.2218
-4.4157 SHIP -0.2218
-4.4157 SHIRT -0.2218
-4.4157 SHIT -0.2218
-4.4157 SHOCK -0.2218
-4.4157 SHOE -0.2218
-4.4157 SHOOT -0.2218
-4.4157 SHOOTING -0.2218
-4.4157 SHOP -0.2218
-4.4157 SHOPPING -0.2218
-4.4157 SHORE -0.2218
-4.4157 SHORT -0.2218
-4.4157 SHORT-TERM -0.2218
-4.4157 SHORTAGE -0.2218
-4.4157 SHORTLY -0.2218
-4.4157 SHORTS -0.2218
-4.4157 SHOT -0.2218
-4.4157 SHOULD -0.2218
-4.4157 SHOULDER -0.2218
-4.4157 SHOUT -0.2218
-4.4157 SHOVE -0.2218
-4.4157 SHOW -0.2218
-4.4157 SHOWER -0.2218
-4.4157 SHRIMP -0.2218
-4.4157 SHRINK -0.2218
-4.4157 SHRUG -0.2218
-4.4157 SHUT -0.2218
-4.4157 SHUTTLE -0.2218
-4.4157 SHY -0.2218
-4.4157 SIBLING -0.2218
-4.4157 SICK -0.2218
-4.4157 SIDE -0.2218
-4.4157 SIDEWALK -0.2218
-4.4157 SIGH -0.2218
-4.4157 SIGHT -0.2218
-4.4157 SIGN -0.2218
-4.4157 SIGNAL -0.2218
-4.4157 SIGNATURE -0.2218
-4.4157 SIGNIFICANCE -0.2218
-4.4157 SIGNIFICANT -0.2218
-4.4157 SIGNIFICANTLY -0.2218
-4.4157 SILENCE -0.2218
-4.4157 SILENT -0.2218
-4.4157 SILK -0.2218
-4.4157 SILLY -0.2218
-4.4157 SILVER -0.2218
-4.4157 SIMILAR -0.2218
-4.4157 SIMILARITY -0.2218
-4.4157 SIMILARLY -0.2218
-4.4157 SIMPLE -0.2218
-4.4157 SIMPLY -0.2218
-4.4157 SIMULTANEOUSLY -0.2218
-4.4157 SIN -0.2218
-4.4157 SINCE -0.2218
-4.4157 SING -0.2218
-4.4157 SINGER -0.2218
-4.4157 SINGLE -0.2218
-4.4157 SINK -0.2218
-4.4157 SIR -0.2218
-4.4157 SISTER -0.2218
-4.4157 SIT -0.2218
-4.4157 SITE -0.2218
-4.4157 SITUATION -0.2218
-4.4157 SIX -0.2218
-4.4157 SIXTH -0.2218
-4.4157 SIZE -0.2218
-4.4157 SKI -0.2218
-4.4157 SKILL -0.2218
-4.4157 SKILLED -0.2218
-4.4157 SKIN -0.2218
-4.4157 SKIP -0.2218
-4.4157 SKIRT -0.2218
-4.4157 SKULL -0.2218
-4.4157 SKY -0.2218
-4.4157 SLAM -0.2218
-4.4157 SLAP -0.2218
-4.4157 SLAVE -0.2218
-4.4157 SLAVERY -0.2218
-4.4157 SLEEP -0.2218
-4.4157 SLEEVE -0.2218
-4.4157 SLICE -0.2218
-4.4157 SLIDE -0.2218
-4.4157 SLIGHT -0.2218
-4.4157 SLIGHTLY -0.2218
-4.4157 SLIP -0.2218
-4.4157 SLOPE -0.2218
-4.4157 SLOT -0.2218
-4.4157 SLOW -0.2218
-4.4157 SLOWLY -0.2218
-4.4157 SMALL -0.2218
-4.4157 SMART -0.2218
-4.4157 SMELL -0.2218
-4.4157 SMILE -0.2218
-4.4157 SMOKE -0.2218
-4.4157 SMOOTH -0.2218
-4.4157 SNAKE -0.2218
-4.4157 SNAP -0.2218
-4.4157 SNEAK -0.2218
-4.4157 SNOW -0.2218
-4.4157 SO -0.2218
-4.4157 SO-CALLED -0.2218
-4.4157 SOAK -0.2218
-4.4157 SOAP -0.2218
-4.4157 SOAR -0.2218
-4.4157 SOCCER -0.2218
-4.4157 SOCIAL -0.2218
-4.4157 SOCIALLY -0.2218
-4.4157 SOCIETY -0.2218
-4.4157 SOCK -0.2218
-4.4157 SODIUM -0.2218
-4.4157 SOFA -0.2218
-4.4157 SOFT -0.2218
-4.4157 SOFTEN -0.2218
-4.4157 SOFTLY -0.2218
-4.4157 SOFTWARE -0.2218
-4.4157 SOIL -0.2218
-4.4157 SOLAR -0.2218
-4.4157 SOLDIER -0.2218
-4.4157 SOLE -0.2218
-4.4157 SOLELY -0.2218
-4.4157 SOLID -0.2218
-4.4157 SOLUTION -0.2218
-4.4157 SOLVE -0.2218
-4.4157 SOME -0.2218
-4.4157 SOMEBODY -0.2218
-4.4157 SOMEDAY -0.2218
-4.4157 SOMEHOW -0.2218
-4.4157 SOMEONE -0.2218
-4.4157 SOMETHING -0.2218
-4.4157 SOMETIME -0.2218
-4.4157 SOMETIMES -0.2218
-4.4157 SOMEWHAT -0.2218
-4.4157 SOMEWHERE -0.2218
-4.4157 SON -0.2218
-4.4157 SONG -0.2218
-4.4157 SOON -0.2218
-4.4157 SOPHISTICATED -0.2218
-4.4157 SORRY -0.2218
-4.4157 SORT -0.2218
-4.4157 SOUL -0.2218
-4.4157 SOUND -0.2218
-4.4157 SOUP -0.2218
-4.4157 SOURCE -0.2218
-4.4157 SOUTH -0.2218
-4.4157 SOUTHEAST -0.2218
-4.4157 SOUTHERN -0.2218
-4.4157 SOUTHWEST -0.2218
-4.4157 SOVEREIGNTY -0.2218
-4.4157 SOVIET -0.2218
-4.4157 SPACE -0.2218
-4.4157 SPANISH -0.2218
-4.4157 SPARE -0.2218
-4.4157 SPARK -0.2218
-4.4157 SPEAK -0.2218
-4.4157 SPEAKER -0.2218
-4.4157 SPECIAL -0.2218
-4.4157 SPECIALIST -0.2218
-4.4157 SPECIALIZE -0.2218
-4.4157 SPECIALTY -0.2218
-4.4157 SPECIES -0.2218
-4.4157 SPECIFIC -0.2218
-4.4157 SPECIFICALLY -0.2218
-4.4157 SPECIFY -0.2218
-4.4157 SPECTACULAR -0.2218
-4.4157 SPECTRUM -0.2218
-4.4157 SPECULATE -0.2218
-4.4157 SPECULATION -0.2218
-4.4157 SPEECH -0.2218
-4.4157 SPEED -0.2218
-4.4157 SPELL -0.2218
-4.4157 SPEND -0.2218
-4.4157 SPENDING -0.2218
-4.4157 SPHERE -0.2218
-4.4157 SPILL -0.2218
-4.4157 SPIN -0.2218
-4.4157 SPINE -0.2218
-4.4157 SPIRIT -0.2218
-4.4157 SPIRITUAL -0.2218
-4.4157 SPIT -0.2218
-4.4157 SPITE -0.2218
-4.4157 SPLIT -0.2218
-4.4157 SPOKESMAN -0.2218
-4.4157 SPONSOR -0.2218
-4.4157 SPOON -0.2218
-4.4157 SPORT -0.2218
-4.4157 SPOT -0.2218
-4.4157 SPOUSE -0.2218
-4.4157 SPRAY -0.2218
-4.4157 SPREAD -0.2218
-4.4157 SPRING -0.2218
-4.4157 SPRINKLE -0.2218
-4.4157 SPY -0.2218
-4.4157 SQUAD -0.2218
-4.4157 SQUARE -0.2218
-4.4157 SQUEEZE -0.2218
-4.4157 STABILITY -0.2218
-4.4157 STABLE -0.2218
-4.4157 STACK -0.2218
-4.4157 STADIUM -0.2218
-4.4157 STAFF -0.2218
-4.4157 STAGE -0.2218
-4.4157 STAIR -0.2218
-4.4157 STAKE -0.2218
-4.4157 STANCE -0.2218
-4.4157 STAND -0.2218
-4.4157 STANDARD -0.2218
-4.4157 STANDING -0.2218
-4.4157 STAR -0.2218
-4.4157 STARE -0.2218
-4.4157 START -0.2218
-4.4157 STARTER -0.2218
-4.4157 STARTING -0.2218
-4.4157 STATE -0.2218
-4.4157 STATEMENT -0.2218
-4.4157 STATION -0.2218
-4.4157 STATISTICAL -0.2218
-4.4157 STATISTICS -0.2218
-4.4157 STATUE -0.2218
-4.4157 STATUS -0.2218
-4.4157 STATUTE -0.2218
-4.4157 STAY -0.2218
-4.4157 STEADILY -0.2218
-4.4157 STEADY -0.2218
-4.4157 STEAK -0.2218
-4.4157 STEAL -0.2218
-4.4157 STEAM -0.2218
-4.4157 STEEL -0.2218
-4.4157 STEEP -0.2218
-4.4157 STEER -0.2218
-4.4157 STEM -0.2218
-4.4157 STEP -0.2218
-4.4157 STICK -0.2218
-4.4157 STIFF -0.2218
-4.4157 STILL -0.2218
-4.4157 STIMULATE -0.2218
-4.4157 STIMULUS -0.2218
-4.4157 STIR -0.2218
-4.4157 STOCK -0.2218
-4.4157 STOMACH -0.2218
-4.4157 STONE -0.2218
-4.4157 STOP -0.2218
-4.4157 STORAGE -0.2218
-4.4157 STORE -0.2218
-4.4157 STORM -0.2218
-4.4157 STORY -0.2218
-4.4157 STOVE -0.2218
-4.4157 STRAIGHT -0.2218
-4.4157 STRAIGHTEN -0.2218
-4.4157 STRAIN -0.2218
-4.4157 STRANGE -0.2218
-4.4157 STRANGER -0.2218
-4.4157 STRATEGIC -0.2218
-4.4157 STRATEGY -0.2218
-4.4157 STRAW -0.2218
-4.4157 STREAK -0.2218
-4.4157 STREAM -0.2218
-4.4157 STREET -0.2218
-4.4157 STRENGTH -0.2218
-4.4157 STRENGTHEN -0.2218
-4.4157 STRESS -0.2218
-4.4157 STRETCH -0.2218
-4.4157 STRICT -0.2218
-4.4157 STRICTLY -0.2218
-4.4157 STRIKE -0.2218
-4.4157 STRIKING -0.2218
-4.4157 STRING -0.2218
-4.4157 STRIP -0.2218
-4.4157 STROKE -0.2218
-4.4157 STRONG -0.2218
-4.4157 STRONGLY -0.2218
-4.4157 STRUCTURAL -0.2218
-4.4157 STRUCTURE -0.2218
-4.4157 STRUGGLE -0.2218
-4.4157 STUDENT -0.2218
-4.4157 STUDIO -0.2218
-4.4157 STUDY -0.2218
-4.4157 STUFF -0.2218
-4.4157 STUMBLE -0.2218
-4.4157 STUPID -0.2218
-4.4157 STYLE -0.2218
-4.4157 SUBJECT -0.2218
-4.4157 SUBMIT -0.2218
-4.4157 SUBSEQUENT -0.2218
-4.4157 SUBSIDY -0.2218
-4.4157 SUBSTANCE -0.2218
-4.4157 SUBSTANTIAL -0.2218
-4.4157 SUBSTANTIALLY -0.2218
-4.4157 SUBTLE -0.2218
-4.4157 SUBURB -0.2218
-4.4157 SUBURBAN -0.2218
-4.4157 SUCCEED -0.2218
-4.4157 SUCCESS -0.2218
-4.4157 SUCCESSFUL -0.2218
-4.4157 SUCCESSFULLY -0.2218
-4.4157 SUCH -0.2218
-4.4157 SUCK -0.2218
-4.4157 SUDDEN -0.2218
-4.4157 SUDDENLY -0.2218
-4.4157 SUE -0.2218
-4.4157 SUFFER -0.2218
-4.4157 SUFFERING -0.2218
-4.4157 SUFFICIENT -0.2218
-4.4157 SUGAR -0.2218
-4.4157 SUGGEST -0.2218
-4.4157 SUGGESTION -0.2218
-4.4157 SUICIDE -0.2218
-4.4157 SUIT -0.2218
-4.4157 SUITABLE -0.2218
-4.4157 SUITE -0.2218
-4.4157 SUM -0.2218
-4.4157 SUMMARY -0.2218
-4.4157 SUMMER -0.2218
-4.4157 SUMMIT -0.2218
-4.4157 SUN -0.2218
-4.4157 SUNLIGHT -0.2218
-4.4157 SUNNY -0.2218
-4.4157 SUPER -0.2218
-4.4157 SUPERIOR -0.2218
-4.4157 SUPERMARKET -0.2218
-4.4157 SUPERVISOR -0.2218
-4.4157 SUPPLIER -0.2218
-4.4157 SUPPLY -0.2218
-4.4157 SUPPORT -0.2218
-4.4157 SUPPORTER -0.2218
-4.4157 SUPPORTIVE -0.2218
-4.4157 SUPPOSE -0.2218
-4.4157 SUPPOSED -0.2218
-4.4157 SUPPOSEDLY -0.2218
-4.4157 SUPREME -0.2218
-4.4157 SURE -0.2218
-4.4157 SURELY -0.2218
-4.4157 SURFACE -0.2218
-4.4157 SURGEON -0.2218
-4.4157 SURGERY -0.2218
-4.4157 SURPRISE -0.2218
-4.4157 SURPRISED -0.2218
-4.4157 SURPRISING -0.2218
-4.4157 SURPRISINGLY -0.2218
-4.4157 SURROUND -0.2218
-4.4157 SURROUNDING -0.2218
-4.4157 SURVEILLANCE -0.2218
-4.4157 SURVEY -0.2218
-4.4157 SURVIVAL -0.2218
-4.4157 SURVIVE -0.2218
-4.4157 SURVIVOR -0.2218
-4.4157 SUSPECT -0.2218
-4.4157 SUSPEND -0.2218
-4.4157 SUSPICION -0.2218
-4.4157 SUSPICIOUS -0.2218
-4.4157 SUSTAIN -0.2218
-4.4157 SUSTAINABLE -0.2218
-4.4157 SWALLOW -0.2218
-4.4157 SWEAR -0.2218
-4.4157 SWEAT -0.2218
-4.4157 SWEATER -0.2218
-4.4157 SWEEP -0.2218
-4.4157 SWEET -0.2218
-4.4157 SWELL -0.2218
-4.4157 SWIM -0.2218
-4.4157 SWIMMING -0.2218
-4.4157 SWING -0.2218
-4.4157 SWITCH -0.2218
-4.4157 SWORD -0.2218
-4.4157 SYMBOL -0.2218
-4.4157 SYMBOLIC -0.2218
-4.4157 SYMPATHY -0.2218
-4.4157 SYMPTOM -0.2218
-4.4157 SYNDROME -0.2218
-4.4157 SYSTEM -0.2218
-4.4157 T-SHIRT -0.2218
-4.4157 TABLE -0.2218
-4.4157 TABLESPOON -0.2218
-4.4157 TACKLE -0.2218
-4.4157 TACTIC -0.2218
-4.4157 TAG -0.2218
-4.4157 TAIL -0.2218
-4.4157 TAKE -0.2218
-4.4157 TALE -0.2218
-4.4157 TALENT -0.2218
-4.4157 TALENTED -0.2218
-4.4157 TALK -0.2218
-4.4157 TALL -0.2218
-4.4157 TANK -0.2218
-4.4157 TAP -0.2218
-4.4157 TAPE -0.2218
-4.4157 TARGET -0.2218
-4.4157 TASK -0.2218
-4.4157 TASTE -0.2218
-4.4157 TAX -0.2218
-4.4157 TAXPAYER -0.2218
-4.4157 TEA -0.2218
-4.4157 TEACH -0.2218
-4.4157 TEACHER -0.2218
-4.4157 TEACHING -0.2218
-4.4157 TEAM -0.2218
-4.4157 TEAMMATE -0.2218
-4.4157 TEAR -0.2218
-4.4157 TEASPOON -0.2218
-4.4157 TECHNICAL -0.2218
-4.4157 TECHNICIAN -0.2218
-4.4157 TECHNIQUE -0.2218
-4.4157 TECHNOLOGICAL -0.2218
-4.4157 TECHNOLOGY -0.2218
-4.4157 TEEN -0.2218
-4.4157 TEENAGE -0.2218
-4.4157 TEENAGER -0.2218
-4.4157 TELEPHONE -0.2218
-4.4157 TELESCOPE -0.2218
-4.4157 TELEVISION -0.2218
-4.4157 TELL -0.2218
-4.4157 TEMPERATURE -0.2218
-4.4157 TEMPLE -0.2218
-4.4157 TEMPORARY -0.2218
-4.4157 TEN -0.2218
-4.4157 TEND -0.2218
-4.4157 TENDENCY -0.2218
-4.4157 TENDER -0.2218
-4.4157 TENNIS -0.2218
-4.4157 TENSION -0.2218
-4.4157 TENT -0.2218
-4.4157 TERM -0.2218
-4.4157 TERMS -0.2218
-4.4157 TERRAIN -0.2218
-4.4157 TERRIBLE -0.2218
-4.4157 TERRIBLY -0.2218
-4.4157 TERRIFIC -0.2218
-4.4157 TERRITORY -0.2218
-4.4157 TERROR -0.2218
-4.4157 TERRORISM -0.2218
-4.4157 TERRORIST -0.2218
-4.4157 TEST -0.2218
-4.4157 TESTIFY -0.2218
-4.4157 TESTIMONY -0.2218
-4.4157 TESTING -0.2218
-4.4157 TEXT -0.2218
-4.4157 TEXTBOOK -0.2218
-4.4157 TEXTURE -0.2218
-4.4157 THAN -0.2218
-4.4157 THANK -0.2218
-4.4157 THANKS -0.2218
-4.4157 THANKSGIVING -0.2218
-4.4157 THAT -0.2218
-4.4157 THE -0.2218
-4.4157 THEATER -0.2218
-4.4157 THEIR -0.2218
-4.4157 THEM -0.2218
-4.4157 THEME -0.2218
-4.4157 THEMSELVES -0.2218
-4.4157 THEN -0.2218
-4.4157 THEOLOGICAL -0.2218
-4.4157 THEOLOGY -0.2218
-4.4157 THEORETICAL -0.2218
-4.4157 THEORY -0.2218
-4.4157 THERAPIST -0.2218
-4.4157 THERAPY -0.2218
-4.4157 THERE -0.2218
-4.4157 THEREBY -0.2218
-4.4157 THEREFORE -0.2218
-4.4157 THESE -0.2218
-4.4157 THEY -0.2218
-4.4157 THICK -0.2218
-4.4157 THIGH -0.2218
-4.4157 THIN -0.2218
-4.4157 THING -0.2218
-4.4157 THINK -0.2218
-4.4157 THINKING -0.2218
-4.4157 THIRD -0.2218
-4.4157 THIRTY -0.2218
-4.4157 THIS -0.2218
-4.4157 THOROUGHLY -0.2218
-4.4157 THOSE -0.2218
-4.4157 THOUGH -0.2218
-4.4157 THOUGHT -0.2218
-4.4157 THOUSAND -0.2218
-4.4157 THREAD -0.2218
-4.4157 THREAT -0.2218
-4.4157 THREATEN -0.2218
-4.4157 THREE -0.2218
-4.4157 THRESHOLD -0.2218
-4.4157 THRIVE -0.2218
-4.4157 THROAT -0.2218
-4.4157 THROUGH -0.2218
-4.4157 THROUGHOUT -0.2218
-4.4157 THROW -0.2218
-4.4157 THUMB -0.2218
-4.4157 THUS -0.2218
-4.4157 TICKET -0.2218
-4.4157 TIDE -0.2218
-4.4157 TIE -0.2218
-4.4157 TIGHT -0.2218
-4.4157 TIGHTEN -0.2218
-4.4157 TIGHTLY -0.2218
-4.4157 TILE -0.2218
-4.4157 TILL -0.2218
-4.4157 TIMBER -0.2218
-4.4157 TIME -0.2218
-4.4157 TIMING -0.2218
-4.4157 TINY -0.2218
-4.4157 TIP -0.2218
-4.4157 TIRE -0.2218
-4.4157 TIRED -0.2218
-4.4157 TISSUE -0.2218
-4.4157 TITLE -0.2218
-4.4157 TO -0.2218
-4.4157 TOBACCO -0.2218
-4.4157 TODAY -0.2218
-4.4157 TOE -0.2218
-4.4157 TOGETHER -0.2218
-4.4157 TOILET -0.2218
-4.4157 TOLERANCE -0.2218
-4.4157 TOLERATE -0.2218
-4.4157 TOLL -0.2218
-4.4157 TOMATO -0.2218
-4.4157 TOMORROW -0.2218
-4.4157 TONE -0.2218
-4.4157 TONGUE -0.2218
-4.4157 TONIGHT -0.2218
-4.4157 TOO -0.2218
-4.4157 TOOL -0.2218
-4.4157 TOOTH -0.2218
-4.4157 TOP -0.2218
-4.4157 TOPIC -0.2218
-4.4157 TOSS -0.2218
-4.4157 TOTAL -0.2218
-4.4157 TOTALLY -0.2218
-4.4157 TOUCH -0.2218
-4.4157 TOUCHDOWN -0.2218
-4.4157 TOUGH -0.2218
-4.4157 TOUR -0.2218
-4.4157 TOURISM -0.2218
-4.4157 TOURIST -0.2218
-4.4157 TOURNAMENT -0.2218
-4.4157 TOWARD -0.2218
-4.4157 TOWARDS -0.2218
-4.4157 TOWEL -0.2218
-4.4157 TOWER -0.2218
-4.4157 TOWN -0.2218
-4.4157 TOXIC -0.2218
-4.4157 TOY -0.2218
-4.4157 TRACE -0.2218
-4.4157 TRACK -0.2218
-4.4157 TRADE -0.2218
-4.4157 TRADING -0.2218
-4.4157 TRADITION -0.2218
-4.4157 TRADITIONAL -0.2218
-4.4157 TRADITIONALLY -0.2218
-4.4157 TRAFFIC -0.2218
-4.4157 TRAGEDY -0.2218
-4.4157 TRAGIC -0.2218
-4.4157 TRAIL -0.2218
-4.4157 TRAILER -0.2218
-4.4157 TRAIN -0.2218
-4.4157 TRAINER -0.2218
-4.4157 TRAINING -0.2218
-4.4157 TRAIT -0.2218
-4.4157 TRANSACTION -0.2218
-4.4157 TRANSFER -0.2218
-4.4157 TRANSFORM -0.2218
-4.4157 TRANSFORMATION -0.2218
-4.4157 TRANSIT -0.2218
-4.4157 TRANSITION -0.2218
-4.4157 TRANSLATE -0.2218
-4.4157 TRANSLATION -0.2218
-4.4157 TRANSMISSION -0.2218
-4.4157 TRANSMIT -0.2218
-4.4157 TRANSPORT -0.2218
-4.4157 TRANSPORTATION -0.2218
-4.4157 TRAP -0.2218
-4.4157 TRASH -0.2218
-4.4157 TRAUMA -0.2218
-4.4157 TRAVEL -0.2218
-4.4157 TRAVELER -0.2218
-4.4157 TRAY -0.2218
-4.4157 TREASURE -0.2218
-4.4157 TREAT -0.2218
-4.4157 TREATMENT -0.2218
-4.4157 TREATY -0.2218
-4.4157 TREE -0.2218
-4.4157 TREMENDOUS -0.2218
-4.4157 TREND -0.2218
-4.4157 TRIAL -0.2218
-4.4157 TRIBAL -0.2218
-4.4157 TRIBE -0.2218
-4.4157 TRICK -0.2218
-4.4157 TRIGGER -0.2218
-4.4157 TRIM -0.2218
-4.4157 TRIP -0.2218
-4.4157 TRIUMPH -0.2218
-4.4157 TROOP -0.2218
-4.4157 TROPICAL -0.2218
-4.4157 TROUBLE -0.2218
-4.4157 TROUBLED -0.2218
-4.4157 TRUCK -0.2218
-4.4157 TRUE -0.2218
-4.4157 TRULY -0.2218
-4.4157 TRUNK -0.2218
-4.4157 TRUST -0.2218
-4.4157 TRUTH -0.2218
-4.4157 TRY -0.2218
-4.4157 TUBE -0.2218
-4.4157 TUCK -0.2218
-4.4157 TUMOR -0.2218
-4.4157 TUNE -0.2218
-4.4157 TUNNEL -0.2218
-4.4157 TURKEY -0.2218
-4.4157 TURN -0.2218
-4.4157 TV -0.2218
-4.4157 TWELVE -0.2218
-4.4157 TWENTIETH -0.2218
-4.4157 TWENTY -0.2218
-4.4157 TWICE -0.2218
-4.4157 TWIN -0.2218
-4.4157 TWIST -0.2218
-4.4157 TWO -0.2218
-4.4157 TWO-THIRDS -0.2218
-4.4157 TYPE -0.2218
-4.4157 TYPICAL -0.2218
-4.4157 TYPICALLY -0.2218
-4.4157 UGLY -0.2218
-4.4157 UH -0.2218
-4.4157 ULTIMATE -0.2218
-4.4157 ULTIMATELY -0.2218
-4.4157 UNABLE -0.2218
-4.4157 UNCERTAIN -0.2218
-4.4157 UNCERTAINTY -0.2218
-4.4157 UNCLE -0.2218
-4.4157 UNCOMFORTABLE -0.2218
-4.4157 UNCOVER -0.2218
-4.4157 UNDER -0.2218
-4.4157 UNDERGO -0.2218
-4.4157 UNDERGRADUATE -0.2218
-4.4157 UNDERLYING -0.2218
-4.4157 UNDERMINE -0.2218
-4.4157 UNDERSTAND -0.2218
-4.4157 UNDERSTANDING -0.2218
-4.4157 UNDERTAKE -0.2218
-4.4157 UNEMPLOYMENT -0.2218
-4.4157 UNEXPECTED -0.2218
-4.4157 UNFAIR -0.2218
-4.4157 UNFOLD -0.2218
-4.4157 UNFORTUNATELY -0.2218
-4.4157 UNHAPPY -0.2218
-4.4157 UNIFORM -0.2218
-4.4157 UNION -0.2218
-4.4157 UNIQUE -0.2218
-4.4157 UNIT -0.2218
-4.4157 UNITE -0.2218
-4.4157 UNITED -0.2218
-4.4157 UNITY -0.2218
-4.4157 UNIVERSAL -0.2218
-4.4157 UNIVERSE -0.2218
-4.4157 UNIVERSITY -0.2218
-4.4157 UNKNOWN -0.2218
-4.4157 UNLESS -0.2218
-4.4157 UNLIKE -0.2218
-4.4157 UNLIKELY -0.2218
-4.4157 UNPRECEDENTED -0.2218
-4.4157 UNTIL -0.2218
-4.4157 UNUSUAL -0.2218
-4.4157 UP -0.2218
-4.4157 UPDATE -0.2218
-4.4157 UPON -0.2218
-4.4157 UPPER -0.2218
-4.4157 UPSET -0.2218
-4.4157 UPSTAIRS -0.2218
-4.4157 URBAN -0.2218
-4.4157 URGE -0.2218
-4.4157 US -0.2218
-4.4157 USE -0.2218
-4.4157 USED -0.2218
-4.4157 USEFUL -0.2218
-4.4157 USER -0.2218
-4.4157 USUAL -0.2218
-4.4157 USUALLY -0.2218
-4.4157 UTILITY -0.2218
-4.4157 UTILIZE -0.2218
-4.4157 VACATION -0.2218
-4.4157 VACCINE -0.2218
-4.4157 VACUUM -0.2218
-4.4157 VALID -0.2218
-4.4157 VALIDITY -0.2218
-4.4157 VALLEY -0.2218
-4.4157 VALUABLE -0.2218
-4.4157 VALUE -0.2218
-4.4157 VAN -0.2218
-4.4157 VANISH -0.2218
-4.4157 VARIABLE -0.2218
-4.4157 VARIATION -0.2218
-4.4157 VARIETY -0.2218
-4.4157 VARIOUS -0.2218
-4.4157 VARY -0.2218
-4.4157 VAST -0.2218
-4.4157 VEGETABLE -0.2218
-4.4157 VEHICLE -0.2218
-4.4157 VENDOR -0.2218
-4.4157 VENTURE -0.2218
-4.4157 VERBAL -0.2218
-4.4157 VERDICT -0.2218
-4.4157 VERSION -0.2218
-4.4157 VERSUS -0.2218
-4.4157 VERTICAL -0.2218
-4.4157 VERY -0.2218
-4.4157 VESSEL -0.2218
-4.4157 VETERAN -0.2218
-4.4157 VIA -0.2218
-4.4157 VICTIM -0.2218
-4.4157 VICTORY -0.2218
-4.4157 VIDEO -0.2218
-4.4157 VIEW -0.2218
-4.4157 VIEWER -0.2218
-4.4157 VILLAGE -0.2218
-4.4157 VIOLATE -0.2218
-4.4157 VIOLATION -0.2218
-4.4157 VIOLENCE -0.2218
-4.4157 VIOLENT -0.2218
-4.4157 VIRTUAL -0.2218
-4.4157 VIRTUALLY -0.2218
-4.4157 VIRTUE -0.2218
-4.4157 VIRUS -0.2218
-4.4157 VISIBLE -0.2218
-4.4157 VISION -0.2218
-4.4157 VISIT -0.2218
-4.4157 VISITOR -0.2218
-4.4157 VISUAL -0.2218
-4.4157 VITAL -0.2218
-4.4157 VITAMIN -0.2218
-4.4157 VOCAL -0.2218
-4.4157 VOICE -0.2218
-4.4157 VOLUME -0.2218
-4.4157 VOLUNTARY -0.2218
-4.4157 VOLUNTEER -0.2218
-4.4157 VOTE -0.2218
-4.4157 VOTER -0.2218
-4.4157 VOTING -0.2218
-4.4157 VS -0.2218
-4.4157 VULNERABLE -0.2218
-4.4157 WAGE -0.2218
-4.4157 WAGON -0.2218
-4.4157 WAIST -0.2218
-4.4157 WAIT -0.2218
-4.4157 WAKE -0.2218
